biasB
0.0 0.0 0.0 0.0 0.0 0.0 0.0 0.0 0.0 0.0 0.0 0.0 0.0 0.0 0.0 0.0 0.0 0.0 0.0 0.0 0.0 0.0 0.0 0.0 0.0 0.0 0.0 0.0 0.0 0.0 0.0 0.0 0.0 0.0 0.0 0.0 0.0 0.0 0.0 0.0 0.0 0.0 0.0 0.0 0.0 0.0 0.0 0.0 0.0 0.0 
matrixB
-1.0726572056814097 0.21531930259908683 -1.5010830729013063 1.715234185479256 0.29291650011949916 1.8848270648275696 -1.235962073282906 3.2721167295264046 0.46866365163342594 0.07399514685082102 0.43515171723336965 -3.0464977728938063 -1.1406517066298127 -2.0611474115752597 -1.6395274821469157 0.5540542072756746 0.6480442271987387 0.6211991068040703 0.33225038211051183 -0.7201214757837018 0.9948800474698797 -1.6298187046329937 -1.343597056950324 -3.9689281298422556 0.4747046991920271 1.9517941168600434 0.5724829931569637 2.9114769462805175 1.5726594074498965 0.2544049579108923 -1.0106359915047747 -2.2117839940474067 -1.2592723400062837 -0.7498031439520483 -2.695023577936144 0.595931572269309 2.0159911506756774 2.607372949349396 -2.1303451327048863 -0.7438000109311496 1.055394812428157 0.47628626262629997 -2.3247569130451415 1.1918581663198873 1.6487294609343344 -3.7187918409659106 1.01362387300041 -2.0436079485446883 0.2853527616845452 2.3697904188150627 
-0.3414409152730735 -0.39779379793027 2.431923506991204 -1.438319595786986 0.012075249066439087 0.4344667725857861 0.4122924868823385 0.22439013233414887 2.0260987730759545 -0.06449693930418249 -0.6604025968358959 -0.7870987801704012 2.1392342747359274 0.8368647308776298 2.923002533009109 0.3715150415066895 -0.32899959755818087 -1.695863490595804 1.0099342111735425 0.019322120185906184 -1.3611186564833389 1.6151922529512992 1.351944131178172 0.3517142814537644 0.3298609807846493 1.9194831833413364 -1.5847200008777207 -1.419446858839678 0.43533650114533834 -1.8520049319991263 -0.439085650427104 -0.3884207749345374 -0.7047318538631862 -3.9672888787656797 3.5324111061095342 -0.6010557668299218 -0.7230114242892048 1.0671857978730126 0.0745627738189614 2.291908506325419 1.6223429158460443 -3.726978632400794 0.7834460969152651 3.4825377531375765 1.9201354948207252 0.10162013179369436 2.2689616530812318 1.2868729525239564 -0.21894403897383613 -1.1435990575528598 
2.423063288690516 -2.61191985248154 0.3019803765892728 0.01619591977137404 -0.24721835420480373 2.236238746935802 -1.6291453277950556 -2.207616722914278 2.2481177714128466 1.7519233524656086 2.121338468669945 0.654793620122512 -1.744375716058587 2.828089508561061 -1.3073885140630275 -1.0590480776075233 -5.865020886539103 1.2514415981503264 -1.3487420489051745 3.0332017720560414 -0.8272842207454817 -1.4754012247893795 0.2023015857425667 1.3988001736455817 0.025904193478988598 0.5214356308495202 -2.5058685930897973 1.1020058547987321 -2.080592852418873 0.8077166328908484 -0.2849739531797285 0.8731520921870687 -0.25308414409431257 2.2414635618088967 -1.4524755499852249 2.943604512673804 1.5543885514531415 -0.8380489681799642 -0.6275780646356641 -2.5328245946518426 -1.1962568037540293 -2.1675484869693187 -0.12103459931082526 0.10148021636960611 -0.8114377238018784 -1.7775249955882173 4.767479655197657 2.519439971695007 -0.059550532950616165 0.7932760330008287 
-2.8078705272878617 -0.8257427466291609 -0.8490936484305168 0.37385175786803987 -4.854324862824275 0.0470679000859498 -1.7490540995475072 1.628193090124555 -1.707569374324209 -1.8380573066284573 3.4187790372749993 1.861468351487156 0.9427915788946505 -0.2983636169898453 1.8008190090216307 -1.0835843105305756 2.795678274131741 1.5579951357182107 -0.029771992825516572 0.9350903999333329 -1.9947411375445654 -4.396497191900854 -0.8646077047056218 0.6333972807871655 -2.8259269341640234 -0.20411693336098524 1.0156433525376303 2.211368474520751 1.0657902390946552 1.5370817153514258 1.0476446726996902 0.8247974401255985 -0.7691776427119315 3.043985169831347 -0.9695859819835673 -0.6518831279261664 -0.981272954504574 -1.8834388759833813 -1.2605449742803463 -0.19795966177488933 0.9659224940640757 -1.704280481026463 -0.5868977736498359 -1.1802756488820405 3.156674708031303 1.1182989454343428 2.785419543864855 0.960322129745342 2.3129590150016037 -0.017668143982122346 
0.04557142925282821 -0.09677285060762641 -1.218723352327738 0.7373706985293809 1.9376468266607108 1.270892458755851 0.12333234475780738 -1.1253783168357674 2.2579161367261817 -1.7585501913678516 -3.0162006046580565 -1.0420307570838205 0.7682713276428103 -0.7540480405302455 -0.7163392725736342 2.990709503753769 0.864846908964817 3.817006054614436 2.348926543211546 -4.853382689897245 -0.3984146729957241 0.9721823427270787 1.5258295977513139 -0.6887082390680127 3.421318142369583 4.274713782193854 0.24191373650064993 -1.7259341645798643 0.023597032326181714 2.8819261810178145 1.8130346531287003 3.0229948560905364 2.0721386194035594 0.9731321376120868 0.973770905799175 0.31098783728945223 -0.816716179430414 0.21041058956897465 0.02399413714935378 -0.7647041635306204 -0.5264300620310269 1.7542789249245572 0.32245522002283816 1.5578384642741372 1.4781544813577674 1.272014500510063 3.606465653938973 -0.931324462045067 -0.9104413758767331 2.6131857394344156 
0.67818522436843 -1.5228219205255011 -0.03584800062840989 0.6534015431172576 0.3636034818351886 2.069471140440466 2.08477581858903 0.7884977163288835 -0.27086058196768575 -2.380876220698936 0.1787272487015594 -0.05124141759993508 -4.676615547406681 9.62266496133794 -1.308825054863959 -1.8683449518763107 1.1471459339130057 -0.2885614100002693 0.7518912255208594 -0.8755801181522664 -1.7599270863442895 -0.4215292583383995 -0.13050570393681965 -0.9568842793921154 3.803244419831352 -0.4068904754071402 -0.14572652603959454 -3.636030109979199 0.23218622285165633 -1.6131728671640595 0.9843645469845946 -0.6765342305629585 -0.6573152439775785 3.1788617411997624 0.9363897173358131 0.3336660573411616 -1.1913924142777759 0.24095211796979032 -0.22745084711149974 0.6860134009496184 3.225806448872712 -1.613702649787598 0.3914854832106491 5.36935725347492 -3.332060595971511 0.6720502870900268 0.2324155653099128 1.512136065468461 0.43543740500774153 1.746898634123664 
-1.0711020189548088 -0.7932776431425406 -1.134523440356875 0.07848128176557774 -0.9654196013140979 -0.11383360328244031 2.647231260727825 -0.31318212754709474 -0.927833927955662 -4.461216530108347 2.799285993473725 0.42841643497766907 1.134762198307958 -2.2429493164412637 -4.45868706010678 1.1970606688065346 -0.8576880151998958 -3.9809616361059605 -1.336314563175614 1.056601848138543 -0.9700694635610775 0.5300370911050475 -1.179115102413064 0.17737085090514237 -0.5599584422077426 0.4830954377186043 -0.7127925741271182 1.8790014623099873 0.5281709115159008 0.17824290634247023 3.609915357639605 -0.7096434267577422 -1.7248486249454158 1.8068798013370913 0.12770147321408326 -0.9833658318397751 1.6408790900337564 -3.657997212845618 0.1981774849150352 -0.35821804757286174 4.72227384049784 -1.1585096208798018 2.5937988301773975 -1.4883946724993156 -0.388990202804079 -1.4490928719732832 -0.40311104842575635 -1.3704384128476013 -1.186518651511469 1.1554716944458205 
0.7228165457972346 1.602588252759803 0.786634402827095 0.20614663777836373 0.08348569484869106 0.18670714281600487 0.3127953804193311 0.6471006967078282 0.04950298883811393 -0.5424301175375985 -1.631267538657569 -1.7239814976944123 0.10136411922463817 -0.35889381291914224 -0.9811641911924721 -0.576282049574879 -1.0138657138406832 -1.000893861600056 0.4684721708952468 -2.5794653825829155 2.751881278181841 0.980954729148107 -0.5604489211658621 0.1364305839268917 2.174604769588873 -2.0498356391152965 0.10372397439241655 -1.1260310991414946 0.2534472138939249 -0.5123115615672644 -0.5021084612242418 -1.2242024258992343 -1.494888738541482 1.7046878202179405 -1.2145828319479104 1.3090854342964076 5.1736164287753965 0.28466117999110974 -1.9932292588151184 -0.12474849286740577 -1.4544661146336355 2.308202894007806 0.32408529516734147 -1.0896058280294705 0.7661542135761175 -1.6257011872228164 -0.03226273427004924 1.9497181549306448 -3.208092622015496 2.08982095968742 
-1.3696629757486227 0.13089769655838193 -2.361048637934485 0.36526722307487525 -0.08677106049137608 -2.4427371189329894 0.7533575054613576 0.1339448269133635 0.3168578719997516 -0.6514681070917178 1.3589020512279362 -0.056909909876415976 0.9920121093219867 -2.875005514854886 0.5580240509593385 -0.9651487179561171 0.1260192588687299 -0.17542178249511056 0.9277799072254862 -1.2301065822416892 -0.4515146878420483 0.5454543502489417 3.133168728036041 0.6609997266832991 1.9780448223827172 -1.6242049680909445 0.6633169723898289 2.004365605567348 -2.4446533301722333 1.5542868198155537 1.7531060251614268 -1.006895670518239 -0.8951032674917719 0.5350012182214784 2.6846990425221082 -0.6319139100598009 -1.3310964231614608 0.8449855535263064 0.8620857948059942 -2.850757160242618 0.58458552175631 -2.357417151323997 1.4017786833704349 0.6498617454770076 -7.242409391014701 2.6806761330338005 -0.12387862003559216 -1.3758421694249812 -0.4244672450663084 -2.6689785004243256 
1.8262488041707592 0.9738552178666693 2.4226779633192796 -0.6162469467220902 0.7088571064113584 1.9499349293248416 1.3111840619131685 -2.138270177542601 1.1268278714418403 -3.4218086251455304 -0.4640332164639948 3.118678177163049 -0.23895582704864468 0.08139268160316168 1.9295769676167651 0.523871884787189 1.1435619713142224 4.345086312795406 3.36923194432312 -0.45842938046316944 -0.5323920025905847 0.24957355406057796 0.8256420832796196 2.356823437644466 -2.086413879523427 -4.819182782556268 -0.3505352931851256 0.9836807665611875 -2.1369261401669113 0.6272066556150921 -1.920902996630374 -0.4731443055436051 -1.4341239903316323 0.11137323255642433 -1.1214888550347744 -2.1446969248866568 2.7062734887879896 1.586516812331121 -1.6055148838358335 0.5063657209413217 2.092773413333052 -0.13058362269088852 1.2071879994691763 0.26917463761211075 1.657865802977419 -1.1600794154291032 0.9278359906223111 1.616464133091321 1.068060344644849 2.3119837427843506 
0.8198387165722466 -2.2864198093800407 0.8116161849983093 -1.046137831245563 -1.812273309366155 0.6558577960478997 1.013753903879595 4.284433476420635 1.1432935317478794 1.2873606833620224 0.6217661549780799 -1.3069977963422312 -1.9141078145989994 0.29888724628447466 1.3367076458522131 -1.2280195858153076 -3.495771889782651 0.2733064167763306 2.11636497695618 4.105439332837717 0.6417454851062516 -0.8804857362354213 -0.40366844074409153 1.9603371698778136 1.2695413814469627 3.3359155079460776 -1.3191333602153714 -1.263680877613224 -2.6612788205334708 1.778853202323233 1.820175173419775 2.7596898645038106 -2.1061050290732712 1.0946258815968979 -1.5448922863448562 3.4858759675799647 0.3073565536435595 -0.5461721519318065 -2.3216593750098937 2.8752001102062996 0.8536253036318919 0.21602431376636813 1.6412795456800982 2.0950504890358657 0.9843134583158262 0.25119859712863674 -3.2564271910960927 0.8228658793498506 -0.32979136517679286 1.1432580049008347 
-1.4061123204671795 -0.37619741909174076 0.27410377805715413 0.606792750832647 -2.5065464510341644 -0.05081398012024291 0.36005094110941493 -1.3654917035904872 2.3035067937945275 -0.17698988262828586 0.43241702124566633 -2.2465891123314807 2.99019406666206 0.39353940665220855 -1.4217483608380377 0.24900374112719081 2.996097838665823 0.7562263780444953 1.545435585138689 -0.5798471551588059 -1.645507131562139 3.844128899122668 -0.672678625765835 -0.2854846350169117 -1.2375020285650733 -1.273963999446653 -0.9776383922571773 0.6967393759409477 1.5726783186147744 -0.09842675970464707 0.7034149628770606 -0.20976767720856246 -0.8489728376338669 -0.18544892863140275 -2.9344980815113755 -0.5289820914887391 -0.20690748382507199 -3.7917653929265764 0.6945520904300273 -3.281304305883821 1.4283111084630307 -0.5592861991245617 0.761137496199985 0.028399639446996923 -2.265218164468917 0.4365476571474463 2.8911632802807077 0.13872639380525356 -1.6188542208907128 -0.6559604937814074 
-1.3746041152136035 0.17315672686668418 2.4162852647003135 4.521678422922092 7.093233172487096 1.6287086820565255 0.5798357683102559 0.4952064641751524 -0.13649547934194242 -0.0970516277521265 -2.6513195914257905 -0.31325439015110595 -4.242745286085156 1.5078482747740525 2.8742145454729786 0.7718278680790054 -0.10443993470998209 1.0283349953072898 -0.6771840714006923 2.216408135966738 0.9380080410083536 -1.7588345682940185 1.8423029540269065 -0.9657940579623134 1.0901239533882583 0.37266595517930073 -1.420796478573669 0.7303979132405093 -0.5447033038543275 -1.0739580181085278 0.4161883215655026 2.3868296926112067 -3.003283886543979 3.8451238921301147 3.595064041467041 -3.586682400674797 -0.8111515787756376 0.32647305666122234 2.0141481930521454 -3.778907078365202 2.897969367407555 3.4045816878395394 -0.4933274312835235 0.37509633625783606 1.271662842116945 -0.5256996681125948 2.7260687994378383 -3.2767610290981533 -2.3544423166288024 -0.8733630093200364 
0.5406701101190962 0.845544740449847 1.8267080160454463 0.4658724425823355 2.899513908909626 -1.5683724594732495 -2.2824172878412465 0.6343232117710997 1.7140288195883238 -0.01751503910879061 0.84782234329118 2.5055341170960714 0.32407314571637885 0.7279390711669325 -0.025074124628952834 0.8058519401249836 0.02002736225353166 1.8588881174883383 -0.06878070683850401 -0.22042285787213123 0.6550693568309659 0.8731199286730463 -1.8264315220105711 2.133428957218481 -2.173803316641894 -0.45453544628132614 1.1476167552626915 -2.4231973418622994 -1.8096162864764394 -1.0888239374999888 2.353776051010916 1.4493479398652518 -0.6678558781203338 1.7018963571005237 -2.829952887479022 0.5471353025663845 2.3099778312210333 0.7015291715920843 1.3240937775534667 -0.868238510930937 -0.2641171124440445 -3.6664628368860694 2.6404312470759876 0.593710954088215 -2.48198089206977 1.0749179201733978 -0.0238483487190319 1.0083096210056381 -0.3281532658982577 1.5810201920293134 
2.1622807562430286 -3.494338217817176 1.3126285740068067 -0.30311304586832616 -0.7389941408291912 -0.4022863108238935 0.009703638679367974 2.885047839436674 1.5061026418895183 1.4247185798444888 1.0507156858579654 0.18304939093172065 2.234625934387715 -0.19346654198102742 1.8769356609748402 0.32621035511153096 1.3053698255189186 -0.06146467078109565 2.194457463861526 -1.1093041045304326 2.413163128262162 -1.5466712301341454 -0.08809720267814874 5.095810695004995 0.15006614152027872 2.812180727854983 -2.0156512777178377 2.343909203769623 -2.254839744456285 -0.006503333588118181 1.166904677360646 1.9590098835530942 1.9933875712284626 1.7274688623446117 0.6058868392996405 1.1840861871640087 4.375197236720545 2.2639787120340156 -1.0557743725826811 1.2950002327893553 1.2553193712762731 2.799469896062904 1.1463525863777733 0.12250707132377386 -0.7005304887482317 -1.1984339176527692 0.28287532164736523 -1.656198021286229 5.155625471590979 1.119051331786059 
2.783905514815578 1.0969459764841905 -4.005244191681268 -5.548057737059678 -1.1313509598832487 0.7357637990474254 -0.1633776004330466 0.2548782495678178 -0.3805260018754222 0.6671923993018477 3.217904820840142 -0.9023595338871857 -0.4354862234627495 2.4971277843110062 1.248970256576961 0.7449699088744474 1.8399939803640841 1.1221320532799575 -0.3790126491178791 -1.2355441926599278 -1.47949138030481 0.7872512312491968 0.09692912124499475 -0.6854784331119202 1.4149839127252266 -0.44784579512854955 -0.21113258951212616 0.810462548005472 0.14234531725089425 -0.807264944857228 -1.078752974837023 1.398936552595456 1.1194725243957973 -2.1694624738898396 1.4319449787029574 1.3594347587472413 0.37830549734714664 2.2410570437507413 -0.5508657801078465 -0.04010936270973506 -1.3225526618361463 -0.09167419172425914 -1.7221123693363378 -1.969936748611354 2.0746567253702586 -0.28535287062822695 -1.0882054407363115 -1.7799582550524184 -1.0353342164961028 0.9384463072367379 
-0.08124763133178727 2.9127391212609495 -1.2855175258625 1.736019320354025 -0.5000999611159653 -0.2772002018907169 -2.346420395536885 -0.8479655497848627 -0.5183713490929488 1.694986916677119 0.5101045823733499 2.481436265037264 -1.3441979774896513 -0.0595600811724037 1.5134611419240958 -0.7957708705123702 -1.8108762355638928 -0.5255457432761331 -2.360434176514216 -0.683778293660908 -1.8446796453436547 -1.1798379142608164 -0.015546397073736165 -0.42306575183139256 -1.813181363014127 1.394546134023758 0.926442299387459 -1.2768354910417117 1.6882854106920193 0.29852713923909235 -2.6583947371599472 -0.41101477769663675 1.516420274448194 -2.666099883389476 0.5182362226025874 -0.980504493369777 0.9074133824201454 0.8002999591629466 0.729054604923609 -2.1646543009589507 -1.0718114703315391 -0.578362904559627 1.175423353829783 -3.5529197743293888 -1.1414825974231257 -1.9592144341688258 0.8914718796199039 0.8007700669182355 -1.2528583050124635 -2.1044764249077725 
-0.6963749779570165 3.5101042207995183 0.4375364294750654 -0.5355420209887677 -0.8015140748844263 1.3727385107587577 -2.2646749452192507 -1.2506841591509081 0.6040600570354888 0.2604675230707393 1.228833174797871 -2.352030762737362 -0.6831135225718122 -0.8185748501331667 -2.3259549698007738 1.6575562378040287 0.04788887027930629 -0.4125474929028957 1.5496610938079967 -1.156770901818888 -7.659729665195101 -1.2053461419114124 0.6692709956816438 -6.621662616691723 -0.06555952011087234 3.853034403792726 -0.3001253935782414 0.9547488008739811 0.6242398973700217 -0.6121595444083097 -2.617531514766151 2.7797473746030112 0.3900532909374794 2.437193938380169 0.258983392543236 -0.8296189947429536 -0.3529330421723549 -0.1676644932906149 -0.4232392704508588 2.8007573108818535 -0.33474333113162286 0.08047557858409654 6.120198505710929 2.7548673399491337 0.7179822390763858 -0.6829025922459369 0.34137742248850633 2.751562704249601 0.06705525074697895 -5.146244009747614 
-2.9421943931084256 1.2771526848488328 0.5098205543410678 1.951432907376829 -1.1942932995690319 -0.7467393338124863 0.8847667762075685 2.4154897354026854 0.7610291084237748 -0.24346476777701723 -0.6043751622311737 2.719326020616804 -1.2823820667659063 0.4612633182049561 0.6051877624017782 -0.3398967941320911 4.137854988131838 -0.7403723418533013 -1.6193561179456128 1.6864638435493695 -0.3299241726696151 4.701552524334339 0.6141935003527476 -0.03498815732207902 0.06354344387335718 -1.9552282969147161 -1.666728916382365 0.510404449635228 -2.4760420769484104 1.4485372382562607 1.4592753651922377 -0.6112291173437708 -1.8887853862549433 1.1212979918240285 -1.14352402320831 -0.33970193000917126 0.32404027973686156 0.3794924864873136 1.358616801910725 -0.10165372150854007 -1.2459431606677165 -0.8087254354936988 -2.5246978385092005 0.4461993601486723 0.8191390146573446 -1.5413352928334434 1.8338853672237552 -2.3622374535658315 0.12277996809102865 1.8695259113578049 
0.6650229875374571 0.668778157901009 0.19877504043982874 2.6327516418294907 -4.485048663500817 -2.579069131996481 2.513821822290047 -1.3509625508932186 0.2383984479087358 0.6848691581776292 2.1866469537864046 -0.8598122306978362 -0.7551126156518707 0.2487027016399875 1.6421261427090907 1.0059092810915877 2.7267837751947495 -2.3571479605628687 -0.2518192210139006 -5.641653630234435 1.5855857066388566 0.9594053930634115 -1.1872210053074257 -1.3599010679438537 2.8248915134849826 -0.9526333878154558 -1.2632137123463898 1.0642596319282782 0.32831382411293547 -0.13824399916118266 -0.8687529674297708 -2.729970516858711 -2.120610068346181 0.6406644257722709 -0.1334195219466563 -1.4911695018982178 0.5585774693092013 -2.0459216564133356 -1.2288681784300712 -0.302753718060949 1.1721924364413148 0.6630122904272607 -0.9600593799765466 0.12258456549335185 -1.4094337777571102 -0.9831931818417942 1.6046546604747505 -2.3204948441071225 0.8706405687371109 2.2298628543734162 
-2.8156172006320697 -2.3555453815946974 -1.6672141711097164 -0.4694106450653935 1.3590126552106099 -2.6349966821306054 0.14661496544575786 -2.269777714686086 0.7402351908959132 -0.04390339883126532 0.8789596762098255 1.1764642285036901 1.3421558566411866 0.01662482187143372 -0.1412698062224729 0.6392037305496889 0.6657517405959019 0.2892492921770357 1.2907119191104708 -2.5385447636715583 1.9914477031086635 -3.236134191504442 -0.06335361231522688 -1.8252935433858755 2.4799652680436433 -3.105909019117953 0.21876146129771762 0.08595499187834266 1.333535269515452 2.242045425448998 -1.4455631100471165 1.6119765876246792 1.815725663038955 -0.333301804570016 -1.4895025039222236 -0.9288489727400127 -2.544900700652171 -0.5395634320253934 0.8005022407137533 -1.528500032043805 1.4879334592196591 2.191500621065121 0.22658417804945177 2.0371855023950007 -1.375515163930144 -0.8766394419498305 -0.7241537864531271 1.931058649132709 -1.3250486471986318 -1.7175360599432445 
1.1485882356881447 0.2788538379552102 -2.0825464982926656 2.3435489923593877 -1.3691277235807917 1.4784386403838712 1.8927431515518123 -1.7413602596365423 -0.22736101484840643 2.1098576856073583 1.2085406347944192 -2.03432675900728 0.9232705415830266 -1.2455426007744383 -0.6654229105500207 0.19068404584873394 -0.3965654344016207 -3.0023085210487053 1.049327404871426 1.6081909241063175 0.31660786961044024 0.4594501396380425 -1.2577032496134903 -0.9705011573024113 3.400205191735058 0.7861442072671273 1.8113283387013226 -0.78509449245534 -2.8785565616126907 -0.17808003551033472 1.426462764329108 -0.994314753718358 -2.5414308001258608 -1.2262076999066989 -0.14072522246532873 -0.5201925985770535 -0.5489803273183065 0.8197421070559643 0.22493942950121834 0.2899946218727655 -2.4988792074262447 2.2107845094209746 1.5372281678499116 2.6395861836674652 0.11209978823716592 -0.1372650510347302 -1.356606260464628 -1.4237401229329356 0.8202425937998014 -2.645300668592337 
0.6937827778729788 -0.36928612480288203 -3.379163415750488 0.7179980695537438 0.09408271546038482 -0.08354942685134593 0.6128431575342904 0.027581324211674745 -5.292693042390839 1.1604804861756501 -1.6779307040213984 -0.9713166665998365 -3.549465813949131 1.938834473272008 1.821463303241135 1.1031466473326883 0.4648684694739575 -0.8753813932950796 1.6032243664499481 -0.23697038661853004 -1.5984777702853648 -0.7651495211600855 -0.8188208873088942 0.5945730611661467 1.9169440796181574 -0.031032417700531355 -0.7873661694579491 2.5220188239479677 1.2868950732686304 0.7462642379669038 1.86672143384315 0.8145954578481018 1.6709691567832126 -0.0630508377547351 -2.060807825792707 -0.8022377120385491 1.8037047259295156 2.7876552769267477 1.2699867767252753 2.4621876737625317 1.2170899467631202 2.6875990041203077 2.692664982511285 3.926656106590542 1.8517944851785604 -2.43472912877682 0.18459763215542893 -1.0668262331300122 -0.35286946354711207 -0.21167769596122066 
0.2734363237417816 4.057667640246943 -1.2551109599097525 1.394842742810086 -0.5917582088047171 0.776796688023389 1.5332848038956006 1.1574150343911995 2.9664990607841206 -2.0601581373702635 0.7129127165984643 0.46520362101366436 -0.2503183270338713 0.8422065567175518 0.23839159618106062 -0.5715532507515413 2.552407135807868 2.12023882849065 0.33008528184101266 2.303516753123257 1.9191341073401023 1.1858677724973885 -0.28060643162470184 -1.0124867518605247 -0.585624970277448 -0.8533000826680063 -0.03648148010607475 4.220662218547725 1.129586696329131 1.703392089432295 -1.3735208734051931 -2.270981218522132 0.374965430235499 -0.5151960549132087 -0.39952132596298334 -1.2389661711317512 1.3576726475466987 -1.4068190625203263 2.6572954125993546 0.840216680592793 0.11506033052733759 -2.142991922825134 0.5270239792967757 1.7084540156400028 0.7729829114056087 3.758538163194116 1.7176090138889057 3.5223891884162586 0.8829900429596473 -1.4525490249596238 
-1.2152393135606883 2.817113093842076 1.807708594080042 -0.4025190408534142 2.024332496200606 0.3794676578058475 -1.4492451857795445 0.30802638300325447 -0.8806493274465749 0.9925746059177714 -0.05876939330542854 -0.23124552113887462 -0.544416352187869 1.581878437655606 -1.5357205076039033 2.2418670581406692 0.6054503631494811 -1.3870870542799216 1.1857994280735176 -0.5957542833728716 -0.2480547200343058 0.673979063091886 0.38532014599201914 -1.2715774016151387 1.0185262310538372 0.5752116666038803 2.5108636344801174 -0.009294662828030554 -1.7326350163479756 1.7310731121552076 -1.9502481629607749 0.4153752329391494 0.9836676842000223 0.7376113924865624 -0.16149237523844898 -1.22455567504898 -0.3773266973283898 0.8714503887399544 -0.44611650367902583 0.3296729480707666 -1.8081278585184677 1.455121868324503 0.05383888264376573 1.850827920952052 -1.7999753513497219 0.7603517510189365 -0.9020990886013781 -0.1628213758034526 -0.0386243692876511 0.5201097619671585 
-0.15288013057382133 3.8844760024389657 -0.38873094857205676 -2.6683576080521596 0.7169339121078613 2.6759247107034243 1.2778577515028233 -2.0242667351623655 -2.678940484785475 0.041946555325783716 -1.0712391638000098 -0.6164930992146416 1.8573314813474158 0.6371739151588391 1.8290259614500146 1.4382606880807658 1.2400296780346463 -0.1809977691651074 0.5929402489050046 -2.0414734004800046 1.0192922424899435 0.20425625582913928 2.3553643622728986 0.6106586153067457 -2.626115580058623 -1.6855618899026659 0.6837578131294169 -0.19876323844752658 -0.909155715631733 -1.8696775280573523 0.5884156532369127 1.5162096356669914 1.7791254701136294 -0.3041122801538655 1.8087604918200546 -0.9411849958297791 -4.430256330934601 -2.566386231546308 2.575537449479908 2.8574336895288726 -0.48450690321866 -7.991800675289831 -0.09079002311599962 -1.9909263490809863 -0.20205261797589769 0.9620492776023553 3.853779412819678 -0.5785291293116165 -1.7774430490689215 -2.0102825085968647 
1.7263993966136286 -2.2241019588017097 0.8697370158535324 -0.0540504994740565 -0.9797883294222995 -0.42641500942882554 1.0365359121717497 -1.5910921855359494 -0.9244862208311863 -0.8142169713242615 1.92043165253962 -2.350907518324923 1.6011085629609378 2.003431197557234 0.7361621489655988 0.9458171151237338 -1.679137857230363 1.4121868721306052 0.4357969326527745 -1.3764961528679955 0.4007703427754991 -0.9399124866058612 0.28030549587456316 -0.4449309550429202 -2.334546734900976 1.4795890812739343 -0.821177124719337 -3.4612552673391535 3.12513724194509 -1.5756435337576329 -1.1324703749745548 -0.6529521289781061 -0.4941865997065225 3.4535684176601325 0.4844256980831656 0.8710009079776282 0.7991664262396106 -5.848029091268952 0.5969045372143359 -0.4572229729268615 -2.041570787131789 0.5557658106218439 -0.951636895312573 0.6526867766300751 2.0718025619928935 -0.7129440952956021 0.5598146114214972 3.3515591321077776 0.3857870999738204 0.6471928534188319 
-0.20215648616173615 -0.6931133815463874 0.5205787910741014 2.9370218644377055 -3.5397599301517264 -0.011054074528125884 5.8878080304944564 -2.5858477497820713 -2.351528552699254 1.9105423094453728 -0.3427075968406478 0.6562208737448019 -0.23678251778687057 1.8212368965827763 -0.24906306362076422 0.49175517001022684 -4.005822194780466 0.5519666997131898 0.9265465459564014 0.13868147795041094 1.7405859978075056 -4.600169029038817 1.6838298388806612 -1.9080241060275076 0.9593425634708328 0.9509619708352374 -2.4283762175747876 3.5827845728274954 2.321389162866931 3.5185855522325706 -0.931027675753856 -3.1104185798349238 -3.2426962191911266 1.5729118733750036 0.6814777551118951 2.102210168459816 -0.4034495825746128 1.011172796316026 0.7602665002955414 0.9600747378597757 -1.1144052563739797 -2.1586501305496886 -1.5820252971634088 1.43163778453342 -0.40987853832151744 1.271333048981173 -2.5798903545004417 -0.8569141489284415 -0.8553868155729238 1.8440008946100561 
0.0469184464101732 0.984175424538843 -3.5749464885237123 -0.9587462778654681 1.2836274551629452 -1.8573307554979583 -2.1938488230975106 -0.8370154764004331 0.8848870724307123 -3.175391813903463 1.8326599935772896 -1.7669038520308755 -1.0505286529296936 -1.0484857745236216 -1.8483782102723463 0.30261738464340093 1.5257576621586209 1.6955371766342344 -0.5540033745823888 0.25109274054264746 -0.5452267494951436 -0.9456900140438289 1.8064511418439897 2.020993393265904 3.116291455251766 -0.2875161166958648 2.526510763302379 0.4129414386135988 -0.39213460644206105 0.5632610959628234 0.3878982076341318 -0.25329338312418176 0.4724439804246775 1.4432488823292826 -0.5333317198737646 -2.905066235545564 -1.5142518938627454 -1.1093037052705623 2.5821782659593175 -0.27022624686719754 2.5744293348400484 0.2032298877175488 -3.866359437939449 0.5921829292788049 1.835910608490227 1.7495405569996545 1.2951204232199802 -0.35091846971187396 0.29570187938078896 -0.8971821339695178 
0.7308086853558142 -1.3633103677306417 -0.16209254219409744 0.5549158149673772 0.7860285708616204 0.606627657419744 -0.4650215025665826 0.6578937164988767 -2.443568829065969 -0.08201755585979438 -1.817816428477932 2.8349177434008195 2.4314884490017405 -0.3791013628408036 3.6490660932547563 0.22352193226968164 1.165126667859379 0.6095354742185474 1.2092469934799606 -1.6864253476816244 0.20505620289764334 -1.0202771666626285 1.7858559582065707 2.8261009789237717 -0.8014273858765928 1.116110994971061 -0.6310104361966056 -3.8636753758398608 0.23392436180952544 1.4157995452938228 2.2618208406571756 0.5364234295695888 -0.2045430625450163 0.3435032999945554 -1.236704026683421 -3.0742197675052987 0.032611612005077 -0.6117434077336013 -1.7148229937021557 0.8939926905992716 0.0801029838790813 1.070375027601989 -0.834542723763328 0.9916366525045036 0.13791081370253588 0.5135839849371618 -1.3056557854898845 0.45282592221403917 -1.4330317007662219 2.294562650942002 
0.3306416730487611 1.0229880319341298 0.28717495322462133 -0.28424643867834665 2.073792371815894 3.0596536617017764 0.10054846605523832 0.15490908117797716 1.1138744663055715 -0.9483666117309107 -2.5555042566962287 1.1407725833383402 0.9179024516278865 0.5781635931584865 0.8981275163805416 0.19147345199895516 0.9442811917506824 -0.6642537700515008 0.7689155538549834 3.060572514407214 0.019452633033315916 1.9047033947613312 -2.0939954979898947 0.7021376019295646 -1.2224806380083313 -0.05357741237417347 0.39740154239944586 1.387937210715525 -1.647828015543199 -2.986287767490122 -0.3332962948738293 0.14514415752291057 5.245718219540214 -0.4298167225744489 0.24313481489271205 0.6045125236570948 -0.8557913560051961 1.046167666692704 -2.7302884712195756 1.0069196843981716 -3.825372460887564 -0.5677751441928242 1.0685315354757803 7.710946826179787 -0.1728578961607885 -1.777904826525001 -1.5294482774754685 -0.845618641349118 3.5687711964484574 -0.38905265329974364 
3.8116432525389405 -1.6940943987949781 2.9764675340511997 1.1413289421230006 1.2023485071465394 -0.07882451403738662 1.4191052483509052 0.9867671194382199 -3.1455836181972865 1.2920559931926279 0.5221056033157557 -1.514635325833094 1.9656980858155986 0.7168632849320749 -3.0911668918097046 0.6969490826205338 6.376871933797312 0.3528212720952282 -2.57531777818187 -1.088876591075763 2.0824171069915316 1.9592408436035709 -0.5494274101303296 -0.4917671783292014 1.4048988725813099 -0.4118319347607898 -2.969703488299588 3.216246024252535 -0.8226283427975197 -1.9644817744780156 -0.35080167535642337 2.058611866986313 0.5572828274877952 -0.5197169283539703 -1.2381535262996637 1.504038630298828 0.31051917896648734 0.5427253846471136 3.6939341352337443 -1.0097393577318967 0.8640586870531228 -1.9057715486086704 -0.3085244144066216 0.5239473332686398 1.8243319030836729 0.9616053717969472 3.626858966188948 -2.7013978505172944 -0.1190816317884266 4.004544414629338 
4.484414190132359 1.8746951342350107 1.2916053205307085 0.9135167033448042 2.083273085662394 -1.2176907105165629 0.18017821227441547 0.5652748768865131 -4.134169050039528 -2.2986027799720716 0.28488836266122075 -0.7482113449755274 0.22061149690800003 -1.5398760750021445 0.8274776097164566 4.479968490806132 -0.030262385794212945 -2.4828309488961104 -1.9474760365153014 -0.7603369531620289 -0.11571814963164624 1.0798154615085525 0.9266030162983963 2.001215099122953 0.5666360311675858 0.5360196432868513 2.4767955542066464 -0.22053370829670602 -2.9540531460678503 -1.7016680890193565 -2.050401474216455 4.033370385304894 3.4986947282681586 -1.0400183879515625 1.41177089813494 1.5847463741194898 -0.19662726361862734 -1.119176634707653 1.6952010591613904 -1.8355553943762288 2.1073703874219762 -1.7063622920301837 -3.9623474380474124 -0.28069001447333425 2.504427405095947 0.4855497049054703 0.2718457580515153 1.5714665845275329 1.5145451677450592 -1.8036843402413065 
-2.015428921796068 -1.1559353325288393 1.4405885984613664 -0.30199927991630526 -1.83704383828409 0.5201825202573178 -1.6419588324595045 0.45066313632328003 0.17483842399953123 -1.012004978261581 0.42781976618621237 2.539556058965304 -0.7740689357834559 1.2160654785308376 0.6473589778699927 0.14026008224422373 -4.221174420974774 0.17992624840823945 1.3045555381783815 -1.993840976875766 2.3655676215324632 -1.2150529585039522 1.8847160793345579 -2.4906645208371767 -2.9837293433950647 0.7045697845301812 -1.1387434250155017 4.384796183932003 1.7384906284339092 2.149396784564732 2.003592058790406 -0.20126730134754564 -1.2236019416935802 0.4874543137860205 0.13489549451343574 -1.339129689508866 1.6124684214280838 1.3671064701490194 -0.14628500494077257 4.261073077114588 -2.932077077963223 1.9207712470266187 -0.5959799318099632 -0.5231357319341065 0.6445875853346464 -0.3129925230856963 -1.123259864139595 0.365805939016253 -0.12448798351484185 -2.8534458689333895 
1.9475925974860133 -3.1114823464392334 -0.803458101296225 0.3023790526736102 0.8210485725574096 -3.333627325444029 -0.18563880312014674 0.5962879750655554 1.7731479255685505 -1.3676763980777444 -0.3814911096705202 -0.5664074078170157 2.4768957450923894 1.2307832740126723 -1.4159260119458088 -0.10460619733980744 0.9131631247277375 2.5517275138372026 0.4731425942994616 -1.343311670118635 0.44742740773694545 -1.181879722839452 1.2582121723050441 -3.478268507614765 2.881664420590268 -0.698399050946514 -2.1286919397361768 -4.468007354067723 0.3344303264617921 1.1331366222725643 -0.26156223219938296 1.5308047751055192 0.23203518234745213 -1.9801918889315178 -1.4435430294946452 1.7018740212391 1.5600508814415466 0.5628425953064953 0.9203357705416082 -0.8193300368273531 -0.3538509841238289 -0.835671628149536 0.7416196257657859 1.3765517762593558 3.5705055579887492 3.4451521386812543 -1.4841266639373358 -1.9500827085468322 0.7553562484842188 1.9883240758601446 
0.5000885074402263 1.817759278816136 0.18106011355454268 -1.3384395521556243 -0.05080497916708116 0.7100711244157282 1.1946952671975684 0.3834741713445478 -0.09491550666969924 3.70695790288689 -0.012929240124373442 0.6854597604746305 1.920006340876438 -1.264885332810083 -0.3832499376751595 -3.365495965044583 1.6065957490580365 0.5726472640353857 1.5563100990988026 -0.5413101996366848 0.1500847650269892 -1.7554995387015542 1.402656275999584 0.66397838170129 -1.028322511261856 0.6714463432154653 -0.8212494392524068 3.681329357172282 -0.47492368452416306 3.3841695445426097 -3.7261178572514257 0.408830183445725 2.983740631672042 5.072441224017077 0.45480164793576633 0.8139901719515877 -3.6728272289217876 -1.2878811822695373 7.978549760923321 -1.165307212684462 -2.108712556960143 0.9780364620995031 -0.4682538646465998 -0.5016863242724137 -1.6633020528162898 -0.31604960998367293 1.637672351116943 2.6574582766490433 -0.48760280784756066 0.644206454837038 
-4.558340918007446 -0.9834644180285209 0.5807995534333797 0.6819190691966902 -0.7109743689700779 -0.17405908057275193 1.0334278132269374 -3.4518879462346352 -1.7186342293029182 -2.6027859424008777 1.7811160303716367 -0.048869186444680406 1.614007943707244 2.2459859471728882 0.19284984765479496 -0.5064343951475543 -0.7222339121331763 -1.2190731426879475 -1.1323471991970415 -1.6520965694909502 2.5343083462537317 -1.2420151157357782 1.548572123814168 0.02572159958229036 -2.9004002922040364 1.1477066321723957 -2.550107065472702 0.16855218778236206 -0.044001640311494596 0.4697012609533502 1.810351624618712 -2.000848870060397 -0.6080710349580809 2.1547387342144027 1.40163125081094 -2.832118335479575 -1.7798011536263654 -0.41235513804351476 0.9457124923915937 0.36517640836684756 0.6726403379789747 -0.5648966738609559 0.6016942458421073 0.11635061000054803 -1.4071267002036734 -1.654255244824376 -0.6915684303705542 1.777062605030236 -0.38097321183871247 -1.6246226267351724 
-1.6146577414948913 2.1732618310708856 -0.04780878744978397 -1.1173591212088472 -1.9525089261298905 0.005456363365203425 1.3626284361353116 -2.112256162598071 -4.423151458712612 -3.454654398355798 1.5917232280257012 2.3033974071944665 -0.2618524912734448 -0.19562608450751226 0.5283205896139452 -0.10130572709832548 -1.7953481324609262 -1.5209332560263895 2.5432945014155113 0.7899068761302279 -1.3871531531844676 1.882015796339406 -2.0283233698180547 0.22607119143063803 -1.8991568704676116 1.4321508895400945 2.650656977609082 1.584189944009633 0.37904371928130104 -1.6775282381285048 -3.2595914380156477 3.9331377429117764 -0.41616831392570497 1.3858294420831536 -2.358407968872361 1.530201539943131 0.5238119907521033 -1.3787196106578778 1.0763544004584464 -3.558367754582385 -0.07966902473853389 -0.7898107076753252 -3.297543442990286 -0.6237921945581573 2.4447682479467407 -1.4248332324910538 1.5219754960998648 -0.5296871982447982 0.6994858291443161 1.127579779685881 
1.491178229033532 -1.136654380197562 -2.1515876707387704 0.934872983947252 -0.4562076638978851 2.747079588632533 0.48536446534991934 0.7473408303544372 0.4011436258810795 -1.1285354822117002 0.4435479632312374 2.6395479610082218 -0.3819203634153271 1.7014967338326283 1.3460762472920769 0.19307889479420529 0.5822163987170046 0.562084020742854 1.2412449455382493 -4.643870757463039 -0.21270523287627818 0.22290628342596064 1.4448187552749538 0.7476681150087588 -2.229585966524498 -2.5207009560097062 0.1413749169561356 -1.5036512295273938 1.1615253499644869 1.1661010722682428 -2.7192763969935996 1.5195423521024463 0.36266829282722446 -1.6074427314711752 -1.9772858488903577 -2.779645867947245 0.640810535160132 0.5828351059952488 -1.323205222494769 -1.6878132794689757 0.9346704864203307 0.5799177302624886 0.16535167375848622 -2.7985719494313686 -0.12379166142096916 -0.2723425232467425 -0.5163778636267781 0.899056866478987 2.1659471060439164 -1.8042593211413183 
1.221467389184595 -2.1529358999880777 0.8483554660610333 0.14946334963195593 -1.8288999089899687 -0.27936364944885117 -1.3986631584335405 4.556883291391321 2.3886037754446554 3.341716793305533 -3.2325756083107606 0.336660675062163 0.9531571585136951 -0.2741842643580146 -2.248176519793069 -0.12791254427763252 1.222183326610535 1.7708718173025801 -0.5670145598149511 -1.8855010372007193 2.105983642662487 -1.545048345540067 -0.9213003274116216 -0.22998643794497406 0.2616198962041375 -1.5519052464718075 3.9182487830539157 3.9459282607609527 -0.05194526828802845 0.2926528855537404 3.701115861705511 -0.4305984968074971 1.2878617508090928 0.18898872794598687 0.6059975352436134 -1.0774554642940732 0.5817490297166559 -1.0000748836700961 -0.7157873138030011 -1.5869099938060294 -0.5221365538361148 -0.05954546077977792 -1.8282937455200046 0.893004797759106 -2.9149011595107455 0.4967856352819658 2.627428708495018 -3.5019709664415037 0.9956916914991333 -0.5947288367131737 
-0.2744101690325311 3.5138336373714494 2.1140687850685427 -2.052083051078537 0.00985942973675796 1.3332835035143433 -1.0824916211498339 -9.957184682347936E-4 1.1728931533114433 0.4608771163374562 -1.2266234321693719 -1.2999688931833997 -1.479600321981323 -1.680882745816723 -0.47306666258167657 0.6010327786865677 -2.1193350429981535 -0.859945701615775 -5.38160977894423 2.689843731055983 -1.7088167538366124 0.07578174146362605 -0.4143088942180372 4.663632723104912 1.7590004109081334 -0.4122360549647187 -8.768977375944578 0.4091889572935951 -0.48388880293997 1.5710192865922892 -0.4351409546387895 0.3199512794517019 0.9843791041608994 1.4730462413004304 -0.9099473963910268 0.21143804835944544 1.254142584611791 -0.7094866885682994 -1.3298745335324589 1.8413809279978472 -1.1679967779637486 2.139867164160595 -2.2455858881806376 1.661047573268319 -2.5250544365227015 -1.1500403183563568 -1.0973112092612303 0.25288682213959385 -1.6163571344499505 0.8284514869745524 
-1.707205974098057 -2.0967474871047145 -1.8846873982731975 0.7385632505639002 -0.2902078393696843 -1.2786877387123095 2.48074411752813 3.768831800366807 1.7578582027649547 -1.3047295242726098 0.33990336429995593 -0.38186105142616295 0.8678371199573949 -2.9882181129876404 1.1859195693732607 0.647832400106775 1.7142087918237852 -0.8577726144886512 3.298567875809973 -1.1875379190097584 2.999920075074135 -4.558396803052396 -1.45557174343947 0.6157369848201506 2.457653571145643 -0.5749793337364041 1.0263584414714364 -2.2258725497864145 -2.0843690796508496 -1.5424881900733416 -4.6660513875299 -0.8881104718495754 -1.2002627271168944 0.15756464110542207 2.0352136135352468 -1.5449977784328863 1.7252358825734526 1.4439089252834194 2.728888318834402 1.2806860299782112 -0.9920567903334757 0.5759067507760048 3.7213109834486833 0.3557349341271458 -1.2353304853139013 1.2261396843202952 0.7343444164415054 -0.6539394061680659 -1.7756636466941662 0.5947882814261594 
1.7671752999196613 -0.021180510007946973 -2.918221982708626 -1.739010452170732 1.3936794201717841 -3.79796369646126 -3.9086418943036643 -1.2951045153128866 -0.5406402999564934 0.7008093322527378 2.7388185413448785 -1.4513155592539555 -4.2657737861656795 -0.5577585138804769 1.5591456600019902 -0.22396932972734226 1.4595849645745098 1.7294550907489137 -1.0655331415031646 4.346479996198216 -0.03300571848325749 -0.6345324614048335 0.3201142518238024 -0.604471810572104 3.3671158634385208 -0.1842946696340547 -0.18060180378130675 -0.034444483513941124 -0.3509022121556745 -0.8102662219267216 2.2332534403884465 2.1332620477974045 2.4758037527639156 -0.1937303373545044 0.024185287236066187 1.0907271417848918 2.486639553313936 1.341402197566236 0.4585548266747022 -0.1653956880152441 -2.535188431186012 -0.09623727278759354 -0.39214531267782965 -0.02351198881090947 -2.4304775532016967 0.03527178482297292 -0.20776152564593975 -1.729571264836376 3.2126971360998495 -0.048832594354046195 
3.3027198058539464 -0.08845576874703844 0.28956425873972014 1.6380882564670345 -0.7917360346270194 -0.7519537473042198 1.8823158604982964 0.22626113566389472 -0.39581518420061734 -1.7387122281342275 -1.252882180221621 0.3549575404563084 0.410258565113138 -1.9828386207397857 -0.7518213608980333 0.29649274936184594 -0.4715155159520564 0.33901400989646396 0.39572527183585665 2.750567571706374 -0.03609309765122226 -2.3623338040417283 2.434169972296772 3.473751636909253 0.2347959066063361 1.2434719431511059 -1.2382154994314436 1.1615382560182455 -1.057999896559788 4.1754780826484295 -1.7461872204395479 1.0794939042482534 1.1802836327725594 0.7657506133157906 -1.2794291679222627 1.0818701043705325 5.519418438194778 -0.16775095143091914 -2.474911969294849 -0.44561526089836323 -0.37604175716303156 0.5743521435395011 -0.6331861722351988 -2.688263930426285 -0.7316884939934921 -1.4564497469238487 -2.009735619512441 -0.035070877182769244 0.864237931014759 -3.229566118224655 
1.61421447241083 -0.18563435784428933 2.587897561205944 0.4554684399165116 -1.1426936707241673 -1.9765171155777617 1.3635615820283937 -0.4896457592546455 -0.36630654020807096 3.6659057102128325 -3.1213971267860052 -0.34427817895119883 -0.7444441459010644 -0.8362076157810419 2.666832701158621 -2.1810830585338854 -0.34135171022378924 1.5814729852706122 -1.4111675541662514 -0.6771228244752271 0.03600831792372312 -2.0436390468066374 -1.3172171546618936 1.298408467455166 4.912218922629786 3.3310573617912373 1.9036853165062413 -4.00358934113632 1.3736621162816125 -0.9449546883004987 0.2642060107864307 0.6060766972310994 0.545281009519143 -0.40766516987795004 1.775355187697277 2.202567911403447 -1.3792560544516637 -0.999342158594692 -3.1803436869984423 -0.3352666962375591 0.5558153820523924 -0.22300019006935573 -0.22284633564958084 -0.23573145501683848 -1.4945869950989872 -1.0358367365585968 -0.012959686886005071 -5.08512263268026 -1.1028644046821179 -0.8955795556755962 
1.3983157294787611 -1.8618038769574623 -0.9888142757966553 0.08064444997274614 -0.9422277864925339 0.3083310109672306 0.15822307094580348 0.5014639396185006 -2.2402526471148128 -2.1942911458858427 5.944268179647306 4.742738657838354 0.1615164542868631 2.183437461090458 -1.0385033838931534 -1.2005836168945478 -1.067081591277398 -1.129337717668948 0.35531379790183787 -1.3185374511459225 -1.449670587553228 -1.9345719401097776 -0.9597949832259494 1.2885828523274254 -0.2423101487537853 -1.151233256622195 -2.8590708456104563 1.5029184220677005 0.973477337844021 -0.5636597308886571 -0.850173687400711 -1.2498122804377896 0.28010538159564724 1.6617641520469153 0.4055433456845956 -1.0987257374861459 -0.5111440593976507 0.6355446709474364 -6.0529427785092045 -0.13767824694668707 0.10455955843066382 -1.0057387011993721 0.010131750834302828 -0.25680753092187186 -0.8532162313273178 -0.9414632792361847 1.2428725519892172 -0.5934293981824011 1.7517746868168287 0.8160574484831508 
1.9793842974065987 0.21091621866608615 1.5289678734337784 -0.05987759131740228 0.6998516277000405 -2.902270107347234 -2.6984476133070276 -2.871891212379913 5.490194457247935 -1.6816532458542228 2.3158991629714825 -5.4278380162694555 -0.8817052448535602 -0.848686374768365 2.3257953464058976 0.8962446317628605 -3.204318468677478 -0.9977116607923797 -0.5273483543798042 -3.040854742768972 1.067608563234882 -0.9674982208816354 -1.3782333739260086 0.8867673518448189 -0.03527504370299039 -1.2903737643098465 -0.00841175751459349 0.312176480204707 1.37648538714077 2.844805634814318 -4.802141421217238 0.5513910399397518 0.1653213862484841 -0.8522165690595854 -1.8929778925492982 -2.6028886615139037 2.767810000625727 -1.9166393763012737 -0.45826782204969685 -0.7029300525277015 -1.542473232943522 0.47169612769710845 -0.5797490786816638 -2.8535429074243117 -6.290831553260596 0.8908851565971504 2.6530113728108216 3.4360226662371947 1.897318504161847 0.34464884922657874 
-0.6951324148446765 -1.713771805322353 -0.25251615707609193 0.7807138638310973 1.2836009704758482 -1.1992539390792718 -3.6259057288503374 -5.288623299194807 2.360932606263041 -0.32585455457803714 0.15668599302885536 -8.05167438400455 2.1757630972513016 0.48860368929202447 0.367813647887267 0.8529059013249708 -1.9048290875929044 -1.6405003226159485 -2.0792559236056736 -0.6700928246028011 1.1022872877243088 -1.9687218397031667 -0.04740816359316782 -2.313116112431135 0.6688641454245474 0.4026863493353437 -0.4311773883894586 -0.6468654600465118 1.0114253352645135 1.183483451939813 1.3371723266329218 -1.2883009262494751 1.6047245030497694 4.070758410355376 -0.9678899626803018 2.652445808776128 2.2589779651550765 1.3079069412285558 1.3700307970248236 -2.388781863236883 1.5548513798498724 -2.4523380347325543 -2.5549553176417823 0.6886749815911213 2.4551962449336897 -0.21499488931910835 -0.4233808858091334 -0.6188887764450719 -2.274537393044222 -2.002959767869816 
-0.339692651278691 -0.7020981540950312 -1.1881203907203357 0.9356963116974587 -0.33009954781492695 0.801343974692668 -1.4198676245521566 0.4511377581953081 -3.4553721701348206 -1.1548119738692049 2.5644252136712367 -0.49913092915829127 1.7824342624454226 -0.3581473318219571 0.09179830206277963 0.5692875653291598 -0.259271804108611 1.8309010120450857 1.251563173892838 -1.2097071093165406 -2.0183660523539713 -1.9861317350615666 0.6161032277017411 0.08639955058478731 1.8099038029114893 1.3326430090189054 -0.5504826611129149 -0.05807252241680871 1.0052578448896707 0.08486826775800611 -1.0628860999652971 3.5268327224868594 2.2005480151577395 -1.3613566917538515 -0.45997593795959446 0.16669029258584162 -1.6267982105274117 0.6172301643769628 2.035769888352287 -1.9934723295570558 0.9334701907267895 -1.0227676940102155 -0.17519481247306115 0.6847368469462376 0.5809371719334333 -1.977588588895917 3.11115476831394 -2.975308858234827 1.326696933212959 -1.6158135313208868 
-3.274902108609578 -0.6788407187409938 -1.6454876775540532 -1.369671297430929 1.5270956096344754 0.8431357266966768 0.1003715635687801 1.0822964710528866 -0.72467860242794 -1.041609766502846 -2.3041695740104196 1.2075416514571984 1.155422734442654 -0.8814559719563987 -1.0749722097984076 1.9756999045181804 -1.3278874394632583 -0.8944289151600892 -5.553564753252593 -0.07633593697226175 -1.311737071128678 0.5684894444961983 -0.38780741290872284 -2.8226188352870025 0.44410442461989064 1.2223833505154147 0.79273212529888 0.9332105537427273 0.6729243028140723 3.0926935190216533 1.8929263256727549 2.186458360548764 1.7287380921010718 -2.5343780401558966 -0.14327061694837223 -1.993201406133403 2.640290521830959 -2.18111759513286 1.9941534719447331 -0.057930351852481174 1.8714393285399797 -0.9514941618444716 -1.1953234539658306 1.239231025132439 1.7099909415108978 -0.8179056571613149 2.2008511969901825 0.9755097957781247 -0.5104996835067056 -0.7188403917203158 