biasA
0.0 0.0 0.0 0.0 0.0 0.0 0.0 0.0 0.0 0.0 0.0 0.0 0.0 0.0 0.0 0.0 0.0 0.0 0.0 0.0 0.0 0.0 0.0 0.0 0.0 0.0 0.0 0.0 0.0 0.0 0.0 0.0 0.0 0.0 0.0 0.0 0.0 0.0 0.0 0.0 0.0 0.0 0.0 0.0 0.0 0.0 0.0 0.0 0.0 0.0 
matrixA
0.017422078427338242 2.0395835988159376 -2.2840119977117 -2.475007774311498 1.3694899952990223 -2.2278201563736313 2.0036718054388656 -0.35404792177889793 1.0799168251468594 -0.20476154131316485 -2.252164774302336 3.0202398772906056 0.6062384036385493 2.9331603359259057 -0.4723985320922812 -1.849114213697665 0.2466849871621072 -2.7216199142964723 0.9525240017232646 0.10794035264750403 0.5892863720704781 -0.5048701907985654 -2.7832675241660856 -1.0854510501397332 -0.6214353148213638 -0.09896001775612244 0.25487004511975025 -1.8716618624067034 0.030077174957929782 1.0251115590741402 -0.020883596884238402 0.2234754882931451 -0.9060888894096398 0.5565124264588545 1.5521452387805301 0.19246437989477597 -0.039890346261864044 -0.20736144024205033 0.5498194649627656 -4.152237296416515 -1.4244330715739402 -2.214468829126141 2.557675934802161 0.3595487910350853 1.0878135872961672 -0.6961624325767738 5.084867997975872 -2.3454769156493156 -0.9800798864544689 -0.832862871932876 0.42667982192100573 -1.6228645674437108 -0.6449027961782163 -2.029740919787815 -0.37365744285739544 -0.7910964999155048 -0.9363078627506198 2.1504301527857916 0.3576399227256634 -3.838283656751775 0.0983413268501556 -0.2742073588494322 -0.011097231135107986 0.3381139316370642 2.1712311691293884 0.17606745776288635 -1.1793488188054855 0.7965980385345429 -1.4782197307253853 1.9210926744380776 -0.6163615958064245 0.9413884227248103 -0.7317382485903097 2.6255621380700758 0.7928298131310407 -0.4362890703226522 0.8059938057971495 2.3576894564294553 -1.9075993666553812 -1.372880005393588 -0.30786136540812936 2.0275644520670855 -0.30876701908180576 2.345426942699301 -0.2050163003229555 1.258692954401527 0.3081752605263443 -1.1905554091533128 2.19262059260317 1.3361427758828892 -0.9735772382362639 0.7043807079934294 2.2777209374248932 0.22180983393664588 0.6184259124336483 -0.13001075674359314 -0.6834219695133684 1.4832259867153659 -0.8958626199403689 0.08079943712486438 2.0045011029866564 -1.8807627267671179 1.1033007288645917 -2.6703026122065388 -2.1655411556059714 0.05580482056068536 -3.999847249112731 -3.3964659293547945 -0.5238034986050768 1.2496417249222254 -0.9783304061389343 2.613019274305394 -0.25184150160019436 1.9946029160914613 -2.7256946926554364 -1.2147511110420444 -0.9372169812784696 -0.34707686079099875 -0.22604050659902789 -0.9061259429438956 -1.3046845600081616 2.8560318307560424 -4.734945064040368 -2.6447034943980254 0.8112724384240931 2.4832202037145574 0.743584367095212 2.5976857584802837 -1.3657489786916264 -0.35197946618154285 -2.405371729756272 -1.7615867590690104 0.47473259079900976 -3.6371851501748944 2.4714762752099246 1.598380586620275 1.7845973415633487 -8.169981581247168 -2.1080224168238604 -0.34014582035888447 -0.5123744299661321 0.2993611534978688 0.8841762431236035 2.7517688083457745 2.0071436640149143 -0.23797039424854863 0.5910564685416472 1.775809292759032 -4.026175082583005 -0.8041102894301049 2.0420036839950075 -0.7380319001555946 -1.5712321467353083 -0.7183299558541094 -0.5101993808974049 -0.3310655922769558 -0.20865115308254184 -0.39602314410391726 -1.0166729068633842 -3.584698813218783 1.7558143924071223 -1.1087967124992424 -1.9654703010457404 0.9218686876371474 -1.6988869545004683 -0.605317031269546 0.5749530713947352 -0.9664020602460389 -0.04349494096428908 2.1375188349327323 -2.8758737643917227 -1.3462105675932543 0.9271732128782819 -2.8858369218773885 2.1676455904667575 2.2124941561706883 1.0552700677749962 -2.216987476603671 2.9176629671126464 2.142741176359857 -0.038257150259075286 -2.3973310614094423 -1.2713429539116088 -1.9551035101139245 -7.794644239855319 3.6142256492694806 0.5275805983431713 1.3122864245624153 -1.8208857930605067 0.2730988434055246 0.26812584673037415 -2.6976369132786173 1.2912692810686643 0.47535103369761333 1.9474838627388658 0.4849810384777193 2.3498149906525585 -1.8243443409877027 2.7420748152943064 0.45360207192092794 2.8190584547574202 -3.029252446842941 -0.19290324194259933 0.36883855784841707 1.6629035538478134 1.665527434588377 -1.961751022182554 0.193193324821777 2.8688733148444796 -0.6909775210884784 -2.5084164180799404 -1.79196049181905 -1.1163135064279128 -3.3725651452662118 2.2288006042636614 -3.888641517836805 1.3013597945974993 -2.091321478417654 -0.3008165431781912 4.566493510294869 -1.110154108092878 0.4436411765965571 3.201957144435328 1.2173571976482307 -0.8587590497600485 2.074527265928155 0.20244265066929754 2.9176144092295053 -1.7861945104323613 -2.1941633699905543 2.6987850614897564 1.1007570567889429 2.3399195349997273 2.2218926531102623 -1.0446561511049302 -0.8667888915822107 1.8078028964309987 -0.08502848208032324 -0.5445966107047114 3.433937256218425 -1.8134264167107828 -0.4448679807094582 -0.5910946132855888 0.6786080609852674 1.7478488856250949 0.9774173095610812 -0.0832073500333119 1.0944783238815583 -0.7711994846632115 0.11741128849517474 1.3691666606524542 0.9875331897178007 -1.8197239232797118 -0.05022697485271931 -2.670683579517558 1.0132395262946927 -0.44901482769756623 -0.2188914074151353 -1.7715040057002096 -1.387063400922904 -0.5579248002003927 -0.5438180480164813 2.2057332224343353 -0.9238244550062915 1.3765814721710807 -4.789147350089641 2.138117329546354 1.757328081700236 -3.0283130890235626 0.8501880146526931 -0.22308868808499258 -1.6928962523231519 0.8962423672792783 -0.6772374370540857 0.0993564626872251 0.49281613900518395 -0.21969457553305197 1.7204379153458196 1.2230302864339213 0.26737082712814314 -1.623908716817701 -1.2793885558167246 -0.4795992534762159 4.9323577871401945 0.7657750701084494 -0.648427091499522 4.504774346015319 -2.903105349319728 2.252965242060365 1.9084450186106126 1.0075166830641138 -1.2362183239342597 -3.2300979343190477 -0.19012520927469398 0.29324076596308385 0.9493417563718137 2.593142614578553 1.1486509297971246 0.3372999202527386 -2.0226030188370885 0.3286130191329786 3.392976733754539 -0.45226631092358 1.3989275322050154 -2.777896184372407 -0.49032378855285785 -1.9183846007402638 -0.5874011974138117 0.19111987896397967 -0.877951196296286 -0.6846204134643508 0.4239014671444783 -3.522850649919419 -1.2116727154177447 2.2078289784037164 0.8256664235634594 -2.027611712402805 -1.7054739071367933 1.722483322385816 -0.9757848664734537 2.66378597483519 -0.46151583302174237 -7.494516660430866 -0.24637624518726073 0.024169375106179915 -0.11571080237882757 1.0446039677884373 3.4973898536727313 -3.816362042894368 -0.40271166765759275 3.5092229640480834 -3.4116522623393837 0.17229945010327277 -1.1033951323970497 -2.3707971940601285 -0.6099355738145767 -1.9196613866846326 -0.2869326982429807 -1.4289659577812266 0.9577329299116584 -2.0441166722507904 0.057608177094837204 -1.7858872610963141 -0.06447406902859348 -0.7727525761857535 1.4742581602879454 2.0250997986458428 0.2643537075802337 -1.5958698078481324 0.5720032458668867 0.07896965407583684 0.2539668085503536 -0.13238968054995984 0.17140607259903823 -3.078265794605095 -0.9902029208161944 -1.6150743104118903 0.4459181034407174 -2.8553797257833606 -2.4441220453617545 2.019763693282915 -0.9480528502130938 3.413742343758398 0.6106004921358763 -1.7301708356519223 -2.8215491303009945 -1.6961758190209586 -0.864288084399824 -1.5468804831108272 2.298676766627337 -1.7950162808846049 0.6345270164462289 1.6868238700881009 -2.0631473378116167 0.17882845241334783 -1.5572757184095403 3.9589543390807 1.3269389633200852 0.6088139789025316 -0.891084996790742 -0.30559714692900436 -0.3179576822386531 0.6229700452077138 -1.9490454811189564 -0.9232517370061345 -1.6934598443489184 -0.3907164158916997 1.9150005076719172 2.2373952878756764 1.7105912173990112 -2.1220999762607287 -1.2779584936228134 -0.4685018735760584 -0.6440251105736042 1.7868166933972984 -0.45695740997658646 -1.052182564122717 0.957412872827137 -2.3458358431295836 0.9506299726588877 1.3723041520952222 1.54456796948857 3.1134220573847506 -6.266926558240213 0.9934191256082794 0.7819197850929662 -0.1926317405147925 -2.166252560189354 0.4642542438399856 -1.5457008369925653 0.1074313934232358 2.2863166617913926 2.8115028991667437 -0.28558945950607734 2.4399298635110283 1.9509916348781675 -2.0406000254348267 -0.01940039966779264 -0.5932904271342744 -2.6688006822452053 1.2299203424409428 2.482371492212063 1.0788527053887527 2.3326618710559193 0.707676709226424 2.1799664613694487 0.5765810960091986 0.2505842077132421 -2.194145297980888 2.71257159223852 0.5139751627257474 -2.1355965081563406 -1.35950967287895 -2.559620387040655 0.38415137393179444 0.46715877357541197 1.9011427318886522 2.4704187113553564 1.34052927856796 0.06930534415129491 1.2335943508477991 -2.772218779452128 -0.6337287407901977 -0.22435988020301775 -1.9074340717570921 0.2320329960569293 0.17285138548438914 -0.5368006896607077 -3.4218073054431373 0.9754028553083649 -0.18503087847912547 0.21173859172350296 2.5990658835892892 0.23650532839427552 0.6240602720101442 0.12300904353580934 0.4597663373654159 0.39925775962013754 0.6132301323408518 -1.8229037586516956 -0.9507917616851113 0.11486143770670967 -0.4061033871043354 -0.5324589151752885 1.061091752393914 -5.32821590200492 0.6248011983808187 0.6756073792468444 0.08242524854524241 2.8044811081979653 -1.370770953841187 -2.2647292242171844 0.32651877889870456 0.9811736919769583 -1.7100134588630467 1.454658898413928 1.7112784726887709 0.30021240192115195 -3.3220406043988753 3.3623054352460637 -2.191448262544779 0.3807623676223465 -0.769689003312342 -0.5341549111627167 1.4423464076976253 2.540213119306676 -1.7219574030088458 -3.7181764253764227 0.13939169147711933 0.8799582542665508 -0.4524425882769657 1.138753431136796 -4.392438772639948 -0.03085278834630633 1.451425415593894 -1.564568182354296 0.7238038272280095 -1.1201122796904317 -0.9531901303778025 -1.2667436738177518 -0.3984909931656725 2.203654687359194 3.6051630427607604 1.3832340043621576 0.18753089726322306 -3.0939688345017364 -1.449552890316538 2.7945913150532893 1.3311681298693467 -0.9623778977311356 -1.2930932596443867 -1.0383409443506317 -0.9378278851644949 -0.5560969708873038 0.7042247929655594 0.34677252401937775 0.21231912788595236 -0.5328988546151746 -0.8458407365412229 2.226130155021041 -1.6348803747398724 0.37183246620927585 0.6099045484231176 5.453819395615302 0.5164366705655005 -0.9562855765626241 -1.6451406622408316 -0.15849029093796474 -1.433075996473849 1.104449775340295 -0.6316173476747894 -2.292394686025084 -1.0811280226724014 1.5239448313333792 -1.101689522677784 -8.761017500075939 0.6953332875820363 -2.5931046229916705 -1.9328397295310873 -1.4499321397195273 -2.1565038581563583 2.170198677494567 -0.11994364100052006 1.1058415765465295 0.3079138262821341 -4.4377701585527625 0.5454352957102948 -1.0327517522526124 0.844642622076246 -0.5289963891793916 -1.4266246564726912 -0.08611520647463718 1.6953973534788107 -0.08164641744850319 1.705411684700134 2.067969063140718 -0.8605890972572833 -0.762587635475831 -2.9956632795662155 -1.0330961729786337 0.8867343082985014 -1.9685663803859672 1.8531097669879943 2.149681353699141 0.5796324606127974 0.8454259077203758 -0.11170960211511619 1.537674715851655 1.1315567038937742 2.8481928959673977 0.13678199386412768 3.231259891133893 -1.1340260555811756 1.186926229899299 -1.055013604610652 1.1574185162976942 -0.28179851384515564 0.6505356611128548 -1.0142155168186333 0.6417262780715978 -2.1213748555122685 1.2244136764763263 0.1728915033179753 -0.6319699872770526 -4.825533641580807 -0.18458885952145335 0.5720908683984983 0.7971766727367474 -3.056287667630147 1.4738679507571604 4.052194787269659 1.0540905842403772 -0.5599469285746885 -1.565889743689721 0.5615955974800848 -0.45226021692121815 -4.458322680865426 1.6943889365728013 -2.4694687911298323 1.18810865106603 -3.366277030468311 -4.413010805586419 0.47025460692255394 0.4719760124426737 -2.1686052904750177 -1.312497914540638 1.9178243298700355 0.46730159034205476 -0.4975037447701851 -1.0578972320823035 -0.6083384972421979 0.6975885137834859 -1.8408438266955343 -1.1033672054458397 -0.013113785604669151 -1.95745868290512 1.92783198589529 0.8874059810704147 1.2101812318152625 2.1445760056583643 3.7272239346040137 1.1696071987351877 -0.9023990613017892 -0.038438789858290336 1.4626135251732548 1.0349214005184033 -1.4778041890772005 -2.9860793450540757 6.333653742467872 -0.10457748608401361 -0.22310787832193493 0.23793288957024067 3.2095009389875218 -1.4501090854812395 -1.512880157645995 0.4047986111980468 -0.506196640991648 0.9621829001248949 -0.22370391255495353 -2.740466516777579 2.8931468792273938 0.17793123556659826 -0.23158887643100373 0.2282446240906488 -2.390654216098348 -3.7898845268348174 0.8957819766063971 -0.28547040267763496 -0.3405337744673907 -3.027064623842947 -1.5622327809730565 0.019880754177073762 1.2600578368118438 -1.1191289781600526 -1.236448306412439 -2.44579268680704 -1.1473151050686503 1.049844946222875 2.35160145611789 2.1816694635532383 3.7647153859838354 0.2296855128217606 -2.3669717720313224 -0.9827967718273619 -0.7016411422437895 0.4215589483751087 1.945643498077682 1.692477101738764 -1.5222164672395475 -0.5974241439209022 -1.3304901999391483 2.7853279287029094 1.4195056565305917 -1.3217193864306693 -1.7925696763151255 2.0521226752311916 1.78754614776856 1.6113947081071873 0.6983345359114751 -1.9524836873699136 0.3158166752304004 0.5419152624433657 -0.7307319313552102 0.16247693908807503 -0.14832001107817966 3.078465296345371 -0.5054104314627398 1.7849390981418811 0.6064502717013492 0.019691478019031334 0.06263858266409106 0.3774819550559547 1.9278511936433964 2.3492343805856932 -2.2020431613572193 0.7470992188983417 0.4156329179748536 -0.16596843882978116 0.6518853310814879 -0.3867266927556987 2.3849167602271857 -0.4743609800620782 -4.723231487497892 -1.988152570584548 -1.6713923229683223 -0.6162984330541339 0.6495440915125882 0.9952614523318599 2.2977190857162695 -1.6257561540928733 -1.073040232903852 1.3628474344122068 1.0041363721732424 5.001026941868345 1.7172000866422101 1.4634510357629256 -0.595900709387891 3.9483239745756515 -0.9285123591057421 4.648316407283323 -0.5753341290491036 -0.7636466481323152 0.6220029710170787 1.0544348410941153 -1.3055800933125985 0.20790286106007008 1.8435249885603036 1.839304238903182 -0.056751949001500275 -1.6168926710928286 0.10831455198834168 -0.6200487873135494 -0.42045737255672083 -1.2817717540494182 -2.8653490000020585 0.6179314394525228 -0.39530949706934804 -1.7463875047542747 0.30049665081063115 -1.9175206919383767 -0.32686953095538296 0.8665141456226837 0.31275836882150715 -0.027530372144817208 -0.45599829196212116 -0.9978776784607039 -0.567161016728258 2.663962464974519 -0.6522832250921956 1.6409409729419702 -0.717726339993445 1.2335000289474654 1.4950823529107455 -1.1285178009355366 1.7385521927907759 -0.04394353265155925 -0.25942506369165075 -0.984268894702846 3.9158031431579787 -2.4026078462321694 1.2862692696086082 0.9381661877302512 0.004155927912454757 2.2840283383856774 -1.3429032391936189 0.2056532745016452 2.607177660342762 -1.4022885773695863 -3.774655150980591 1.4892262461776329 2.338285315092575 1.3173012636850328 0.9572432277783003 -2.5810939709892096 -3.3072357060158133 0.8940460202935674 -1.6542482066277406 0.9172140691871316 0.35719555523745944 0.3886009240220412 
-0.5583789318214064 1.1089220837874965 1.874485076175073 -1.5885554657746817 0.3510969851422435 -1.4469594196012938 0.7899111103530895 -0.6380663647110644 -0.23100822851519448 0.015291894077349155 -0.0942462018059702 1.9880741457510989 -0.10145952131880057 -0.7536991257773349 1.674853227631183 1.7645062266020362 -0.7246779684311154 1.2404446956559485 1.8443522843813498 0.9365425447702878 1.0499013882306665 1.272641869632269 -0.39697181517401353 -3.0870482172425997 4.715425775236419 1.2630654875664236 0.5821729782514874 0.501088886151979 3.799344696679352 -0.20945545173247487 0.8532988497522642 -2.5777210000561706 -1.6963452894973352 -1.4357025653075366 0.47134959685386346 0.4256390605288349 0.6007548039573802 -1.2881789956104315 -1.446130055705641 -1.0156246206981512 -0.37348855090112076 -0.38848489068339737 -1.1229605582823825 -0.2550668638218927 -2.8937079203411 -1.0671517286223824 0.14656337033664832 -1.6979228598053755 5.199547904183003 0.5433998925225785 -1.2841069633761324 -0.5005201678157645 2.4069585136789895 -1.9252585314599762 -3.3433767167100132 -2.9048021801052686 -1.6302392705257838 -0.1378872308725504 0.3853514192018196 0.30651455919722126 0.18204663449641986 -0.18191595374011113 2.591847846077301 4.49580726422529 -1.152772662125985 0.6244915142544274 -0.9364577600820291 -3.6975729146579774 2.199649263640616 -2.201925430397402 0.0288882335435616 3.747354327887649 1.5930629727752872 -1.3782491731653883 1.0796713480163427 -1.4383701772036908 -2.0787221342227316 -3.7371069756543345 -3.8536573530666014 1.8042360956207544 1.5930660089402264 -1.9597244609443976 -1.0408557183574578 0.9553056579676543 -1.392685605309008 -0.9412915734730032 1.6903881529433877 -1.0774114059250253 -1.920658736986694 -0.6187267047520971 -2.178438045767988 1.4911309983525698 -2.8371724559768863 1.6375401908427252 -0.3493154810111075 -0.6069094476977495 -1.5452066166647136 0.7462025551774837 -0.20729526723103955 -1.4849108162861842 3.2275436914484907 -1.7335491694413327 1.5261961333864946 0.2350591250357987 1.693240641334574 1.3258175553155025 2.932355282479708 0.8328717917510634 -1.4962910781663896 0.8712936621933549 -1.6606875819782383 -1.1673922835788602 -1.3666238859027637 0.690955960789241 -1.5360965056429423 -2.1316196361482755 -0.32854523727010393 2.9350116702355202 3.0611165018719175 -2.5002734701128895 -1.742321802559693 3.230959539578047 -0.22175545201855437 -0.08847218388589892 -1.7260325010047188 -0.7732715035036113 -0.8491901335987859 1.3972546527919707 -3.0661303543942924 -1.6454439510862924 0.8928264929572445 -1.359902214298431 -1.5698748840885564 -0.9841601380782512 0.06998649856374446 -0.9877788988369867 1.1994041568048095 0.3076637846900339 0.12775908766284788 0.985647853808234 1.5497278109359558 0.39076108927608966 -0.10428204492093873 -1.5323892008410511 1.68715767520611 0.008845107094465295 -0.7676603293029537 -0.5711018574202917 1.0711112561827556 -0.7880624014612707 1.8704696785637143 2.0212522461439875 0.2119990146667875 -2.118046125544791 -0.8127312472221959 1.5085413454450156 -1.8337938421121096 3.873452822436893 -2.1918244754924188 -1.8975547358585905 -1.4049291555330794 1.8203768575473225 -2.8996747225546273 -0.5773842002166788 1.963644047309413 -0.9548445049723299 0.3848160752905241 0.5615551172259164 2.385787059184983 0.2864928287809949 -0.7308726766497453 0.603710056541631 3.0701377404376764 -2.4270363181850865 0.47924967668081797 1.5387585397734491 0.9446268281584401 -0.601141559647803 0.9038202766595339 0.9457981240034404 -2.4251327956926754 -0.171997800835804 5.14931698533879 -1.4842465486249976 0.6389189493645058 -2.3256017626679255 -0.6510732103088939 0.8742824117466215 -0.22273363153468081 -0.9049301382100451 -0.8759657402764107 -2.854596186897266 -1.1205859405104805 -1.4660190413122183 -0.035455393650870075 -1.8682699888774794 2.9449005307245373 -0.19268280040688088 -0.688818809773842 1.1840462453095895 0.6151976139063494 1.0272065788072235 -4.607953016678889 -4.845004519584499 -0.23005716454193448 1.1348807382145791 -2.1394117035441305 -0.1351529849785677 -1.7286112178055062 -0.6971658179108386 1.5896448520294617 4.759053512685095 0.9252908338109262 -2.6219218388459673 -0.15470521774727422 -2.3351005666017026 2.7555738591220686 -1.54124608106917 5.639350354803418 -0.6241402099229701 -0.6794848628045965 -0.7484222767539392 -1.5411971751853386 -1.2219607454828325 -0.8063325831066025 -1.1494046139864145 2.994401462056359 0.058122720721367836 0.2758455657287945 -0.5587905031444678 -1.3186205358159007 2.7054298247103654 0.7810493900956127 0.31835418588678494 -2.684292350429135 -0.3080170775229513 2.737329027270839 1.4577035150135882 -0.8934393018338497 0.7933463833385417 -1.5480011062755499 -2.273788228869604 0.36232223682652304 3.8593866057994375 -1.2579021147169818 -0.5543540617935178 -1.8333277102439172 -6.019415514501676 -0.010285182661888418 -0.7310748005191205 0.310282865140152 -0.9031236018421084 1.9557973719925896 -0.9388772733139974 3.3051824295333003 0.03199126596156347 0.0040019674991240385 -2.369002877588111 -0.37757019650985574 0.16766112874027295 -1.1703790260668763 2.6138913323475714 -2.72242646682675 -0.28613261022853925 0.6360780739775148 5.410115256835097 3.1040184010068477 0.7134151871783471 3.4951567813299005 0.6125587613010746 0.3718454933986644 1.1182519962144615 -1.5740780264099463 -1.1235554267522276 0.4500689284965425 -1.6696319037051215 0.41470798328264646 -0.8807085244159433 2.59041709095071 0.3735207683163368 0.8265834408421278 -1.7628535622485617 0.3113173774959441 0.5280332702601471 -1.8475903172644241 -1.1366684340847577 -1.7403462789311783 -0.10034772078009215 0.7529343243076632 -0.9039611761888895 -1.0766296425184085 -2.1356979487884145 -2.735834635448377 1.0265226080364493 -0.007390885523469776 0.3823033527715952 2.1634886288512907 -0.5424946171610098 0.3976851069589278 -2.865102480588726 -0.9857123266141773 1.180102067496726 3.5621479180828244 -1.1077876883457547 0.9640303526540827 -4.951382434377427 0.9947225658265818 0.39008136692315637 0.8319137480881266 3.166269643388415 -0.7436988926711586 4.0601807337537 -2.020498089684398 -1.9180643799309616 -1.1204680779725569 0.10189539945257159 0.6666016532670269 -1.6923718067308278 -2.2327261681437123 -1.4154177438644142 -0.25539719163732755 0.8311059639670909 3.104306008163255 5.134545087538141 -0.9789555318059028 0.33705924708854335 0.294939549156469 -1.4265473215720665 0.12329426485942968 2.2631015796107996 -3.440128906814922 -4.428693143823663 -0.5146346053924654 1.9442495866023715 0.6877648546829639 3.6169656214625823 1.0532810093571954 -2.0517812733847913 1.1377112576163297 -1.9372801286544588 1.5511720938203988 -0.7407402902875612 -1.6269735379107657 -1.301030871145412 1.0321925337210984 -2.168401652381332 -0.36873353270950116 2.4140442409481575 -1.533373639629085 -2.2840080906783333 2.223826055534364 -1.149267202315504 -0.6632544909275369 -0.10798886278345947 2.5031263226936455 -1.4428434231517056 -5.070146674984317 -0.7593444436740711 0.8246697477863092 3.5273074657041183 1.0912652933734506 -1.1266955683645608 -0.48436802089968545 3.977138861354485 -0.2325608095768467 -0.9125347542117694 -1.7096883313225266 -2.3368202705306103 1.5586090028417066 3.693880386400958 -0.06402975812012285 1.2028069275707387 0.794699211330297 -1.8920207994344242 0.9144974744760876 2.802680554587864 -0.5923455600942548 3.408344821440524 0.1604782440862462 0.06935352916136643 0.23933248644417698 1.1172063089511945 -0.03238774249819131 3.0062067207928203 -0.2814389525812469 -0.5039275725029265 0.5975299167240304 -0.3058685221923477 -0.7623026582485847 2.092245960126755 1.345413755022244 -0.05249024652602802 -0.5035050131375286 -0.9046738584110162 -2.9096578900855756 0.02946523022295433 -0.5732698053869244 0.11381325904146479 -0.4313928865762672 -0.012508038583442667 2.10475269625282 -2.3900003949374677 2.8006089783252537 -0.3701218765538129 0.08256778276987899 -2.0879345028936394 2.523493499906629 -0.40700254672885305 -0.9559767577992199 0.6493980554360403 -2.4002777870702636 -3.155003485081948 -3.2488377414972165 -1.2958011296833956 3.668935566593826 3.2253409819931327 3.189756062112939 -0.8698005163557194 -2.5514586563261625 3.2397633828703056 -0.13603841283862197 0.670571767076694 1.0079444266841036 -1.4361905573573837 0.754466954255488 -0.8343545586549841 -1.5890654554811336 0.4081551435627483 -2.572174854956332 -1.2358941136133588 -0.851873050868389 -0.01836202122570343 -3.493809323731038 0.7018226592635669 2.382737024379864 0.9031841796653902 -0.06634721547028509 -0.39115945893926773 4.749983377020003 0.368285499216188 -1.142728926218294 -0.5895231956469269 -3.7594893631329898 0.833977753750895 0.6665008541453563 2.599204875863477 -1.1100485402571616 2.9701502766349344 -0.439677030066242 -3.5431950930858087 -1.06202206351603 0.6817974901064352 -0.2778477517419815 3.744870852242545 3.8291229189747815 1.1623948778591595 -0.3291574601891278 -1.0258421092479508 -0.9340457126394558 -0.6149322412077782 -1.6636920357173226 -1.2471336232897405 -0.15269204583898413 0.6641866414430342 0.5339690717947553 0.42947114894787985 0.8137725991399828 -0.83514752845849 -0.7540136022248497 -1.0543376714707304 -1.9045796963315214 1.1217204677212926 0.4232069983731422 3.856701293392216 0.874234879004811 2.465514133679412 -4.540687909707367 4.131065238755621 1.6927496746687858 0.733957300213709 0.5547862803740511 -0.7655947727641349 -1.2010078513853062 -0.9675562080957503 0.8106464649737757 3.5734237617169824 0.05356951940035722 0.7160997607104755 -1.7249225545855595 -0.20165036160205232 -0.8311659857227205 1.3009296564686057 0.8098294670979074 3.3802921385298816 -1.8657904745494975 4.644795785880397 1.0964568109231119 0.30088982771339995 -2.4062738104363177 -1.4791863582493816 -1.087198872652189 3.3646444673760794 0.5157040322265632 -2.7270914680488896 1.1938008659422799 1.9955978617879113 2.337812175287646 -0.5666000433315046 -1.6513158495367364 0.3542377422736796 -3.152210896609008 -1.2252325078420438 0.1812334359336558 -1.8903169842575127 -1.7887331290911384 3.740854732154068 -1.0891825430781215 0.5853603493062505 7.0813797664344955 -3.526210330608937 1.348867126078234 -0.9140486792468437 0.8964527379158127 4.010048157361501 -0.8291486199826311 -1.9431069578319555 -0.18729297193196648 -0.8480145226952505 0.9758298034165812 -0.1402011539179897 0.7018905155199375 -0.3329397374708792 -1.8960872732342289 -2.9138487170392557 -1.9539512912148713 0.29452559553816005 1.8247260077235754 1.5815979102436681 -1.538455855140874 -2.0566097233448155 2.10030484050671 1.618073913546932 -1.3456954942096957 0.20470254464792875 0.6752606397266206 -1.416836567410295 0.5738462676726437 -1.5011200163885545 2.296065926974728 -1.7426472422827115 -1.42056920301411 0.6119275344323342 -0.3087440853748841 -0.23553557478260256 4.458310077490824 -0.3027829244374548 0.13503123558878316 -0.13494654151656715 2.4616951594788365 1.7977617629985236 -2.911030714704729 -3.3433160741316374 -0.7574610368079535 -3.4406835428905183 1.6122270859857033 0.8810775253269982 -1.6302301447141696 -0.2283086617361052 0.7227570321300949 -1.2100515298366394 -0.5707285662692578 -1.3622847495264991 -1.7617296930981312 0.8467176115730276 -0.3761856299703516 -1.3016236925748452 -1.3338236836187727 1.2368636008420602 0.0017248641459277627 0.3485393405424722 1.2835461833933097 -0.4493292875428447 0.4859095709166802 -0.46406774613217006 -0.6918027111263476 -1.5800702575247034 -0.7089961563370258 0.48411415376969186 -0.3534609716137938 4.149773041558404 -1.8895065127542046 -0.9360632283504473 -0.05272234803956562 1.4774372108971416 2.8751151145973104 -1.3421660367953947 2.4107018565752587 -0.054989307208927043 3.5730313382049586 -0.5221326769032182 1.586903355075759 0.3534944655057696 -0.10700342851045606 -0.7090665670304017 1.1131655253321817 -0.8886361577470008 -1.0616076919458426 -0.32648794466818293 -0.7243313415792239 0.8893791123457192 0.08872850756049129 -0.15210253523395223 -2.2937877410320713 1.4350221972969672 -0.1265057347317494 0.9158210856455836 -0.6574620442491356 2.3334536872877294 0.3112779717610511 2.9042279610112636 -0.8486444854220896 -0.9640550450550183 1.071081167616485 0.7428353391081597 -0.2761539637139644 -0.9970460094500729 0.06132732829006567 0.8387592814611121 0.06060114749786637 -1.1553011737390841 0.022556607662318814 -0.7882151861604922 -1.2202204379722128 -1.1966740949407293 1.0480319678974175 1.6666382376231883 -0.5108455986691726 -0.6172399566553338 -3.776364423838741 -0.9758050359478528 0.30723486560731034 0.7946622635573868 0.6277197827259248 -1.3289867358503074 -1.5787475342865072 -0.1697500895006979 1.2598839369859067 0.2108232097752087 -0.6560758423403454 -1.9215689336971453 -0.31508671475012096 1.308428768151847 3.4788582710194844 -1.6197670426599358 0.945120523168081 -3.386755773527167 0.16529221364759097 -1.3629579950540023 -0.8423575631069481 0.0029282867833965837 -0.05867789805371601 -0.8321265936024909 1.019066782582806 -0.31910131456783375 0.9063364660848338 -0.9172617129982092 2.57713181854106 3.7365453799274664 1.0033063453294444 -5.843735933205619 3.5876507118415955 -0.8225641157928677 0.7394522232018937 1.351400171262152 -0.5267993194881719 -1.7176933626405557 1.1116565519892503 -0.7648782781495611 1.685526056932185 -0.6338122809657835 -2.0521793244343574 -0.3881894150581346 1.7295813589212297 1.8239933217234556 2.962870891333337 0.3227470286023922 1.3215322034414405 1.786001485633229 0.3921112448297752 -0.3347487422769303 -0.4081574216672944 1.255787579506795 1.4694833944279826 2.7173106607295847 -1.4520203132191907 -1.0260620380022403 -4.615538805446982 2.0139279657806504 2.42026779279327 -0.620071570813915 -2.8294515722031965 1.1547782930261035 4.210606524800705 -1.2199649008973519 -4.6471260041210344E-4 -0.9774718813152422 -0.7101979375323155 0.3509210679215822 -0.053820517348167375 1.7581523070549636 1.9566460092668707 -0.416340255939203 -0.5024323310270266 1.338146322614219 1.6270571651287453 1.7736159538391434 -2.104957736989683 0.7453991734132406 -1.4740558049216013 -2.5531609924316467 0.4950433691736191 0.4619208624468786 -0.06149932605713332 -3.336277752961056 -1.0567076212939746 -4.015824173670956 1.0842347928463056 -0.9879535132912208 2.294911548306386 0.570444201917979 0.07202855404772791 0.7680807453118546 1.4276312529655357 1.214017642521346 -0.42807027614056964 3.1724050414273113 -0.7896101206357253 0.30282695819245237 -1.21825736897294 -2.446879155899714 0.9314279857957618 1.5872883448204713 2.536524659650175 -0.24203045745187332 -2.248422465970526 -0.38998234620791417 -0.8755439966612955 -0.9674750357556209 -0.05573575911130142 -1.2457929844270228 0.5041120415133526 -1.6653271656669442 -1.104728583130221 0.23260728338763564 1.5079085502247045 0.14040247411522955 -1.0743324770016096 3.38454368766554 0.7173002659945958 -0.23814839880962166 0.7913914756414226 -0.5158317436652999 0.17134060337867021 1.352780456232674 0.5402253541026546 -0.751768219980909 -2.2249580898616226 2.0780877121036125 -0.9959551579155247 0.5414321350395023 3.041124420669732 -4.193071637648218 0.0276399223266818 -0.4890820488406109 -3.0231047290552415 -0.11130626932129561 -3.318999739871256 -1.0658474270142233 -0.9918044786830136 0.24300782767284435 
-0.45108546425729457 -1.3177860766646774 0.07963880817358031 0.17289962206130302 -0.6514636228737947 -0.06577122156611295 0.039681151058206056 4.007018545274283 -2.7307439786471877 2.9748828439701738 2.2627940576980956 -0.8895106120513016 1.3951519828676746 -2.480867328483516 -1.8827996148080175 1.6027357225982501 0.32238704381798133 0.33450112291640055 2.2552898811632476 -0.44897363888190156 -1.6582624935633685 -0.4364129023855485 3.3035419055188564 -0.43702275461990286 2.3084913647481744 -0.7945716058662547 0.8611476997066156 1.6248183840878356 0.27200730934234607 -0.5440366968714905 -0.4439999652812316 -0.24165110413961535 0.962532154208768 1.0702332987868612 -0.08403881096872365 -1.1560714404481405 1.841505789384562 1.0941442021139014 -3.820725265265062 -0.2581711919972227 -1.6629788369556395 -0.7837565144907886 0.438663825779348 -2.6249910134347094 1.4129392136096244 -1.8972612488587308 -0.7450987591664159 1.1552250232515575 0.24545134617663059 0.4978464225020013 -1.775908898586926 0.3656452679734993 -0.4232157747250357 0.4157927093246431 2.4219056066603004 1.9549648176403904 -0.013783652120672632 0.7234112853946792 -0.2207759301218375 0.1680582071942891 0.9854253870789141 -2.2030160903479024 0.22583835123270757 0.18271838281693822 0.3331062848168664 -1.6528546414370797 -4.143835491602831 1.0625706677881406 4.259749423670902 1.0776496244195521 2.5947652728819333 -0.04985666298150543 2.23646035154573 -1.0281527547774603 2.855426652599327 -1.4215277200227507 0.1462660394991977 1.2420117352162925 1.8637508416316522 -2.268765653369829 -2.7536650593094074 0.5836164369165415 0.0531499800411715 -0.4508191823447581 -1.056682026956201 1.6421548284798737 0.25341673686156624 -2.307080162047472 -1.898968883205104 0.28712293933894917 1.502617914858406 1.7709803076131527 0.07810838341166333 1.1262645280643928 2.094061982803853 -0.9852306701911325 -2.4088704857690204 -0.38019828786951393 0.1353121533601921 -1.572646995035585 -0.11665763275177635 -2.8341933886468684 2.700441732044005 0.7672046547708938 -0.32259751358307004 1.492568285919953 -1.8717173625004466 3.9151066869076714 0.212068897059167 1.6356441436317883 -0.8185238561784977 2.0271391310365683 -2.230844257117345 -0.04676364523495235 -1.524100324361628 0.9465647625017334 -0.45181991239044106 1.3067700348859657 1.864371559107096 -1.5822994299579982 4.462193503775478 -1.2200868766927349 0.11321298884715575 -2.0289095362540124 -0.12764473358547554 -0.3190165607486135 2.6646749358253117 2.050551135815654 -0.19623139198400116 0.676891370689678 0.21779769549649158 0.6466828104862574 -0.9513121964715904 1.7820217040584025 -1.9699891516980774 -1.4207981726796157 1.1371415709637402 3.97484483757567 0.9616184425498704 0.29123087109064955 1.405786069010871 0.787324831505691 -0.8681779609074355 3.0145928663921513 -0.23674420285684974 -0.40864222511568066 -1.865348426922949 -2.558547871607845 0.1426416296573756 1.2816684388685096 -0.4091456342290573 0.2302564253648736 1.6559698151031763 -0.857251104129563 1.8065182884252202 1.5741837584284708 -0.28191700332105335 -2.7069743743508248 -2.2377227218315485 2.074533285870145 -0.5600690591391051 -1.2331868626264477 -1.4372084540415666 4.030453048044657 -0.23987022882355485 0.3234410107371189 -0.16775125473421798 1.071225944912618 -0.9252433333265954 -1.3865534550755645 -1.7673926015166335 -1.667395027407776 0.25438126681871387 -0.11672264713596478 -1.5953106581418068 -0.4775301541571151 -2.576983107153553 -5.087938376254039 1.3754690599092796 -1.0939837682407618 0.17073786768701635 0.3419679474639892 3.608716243943913 -2.9960398956744116 0.2655867945932415 -0.2771595848299522 -0.6882969775446126 3.9262267317383706 0.6019524818491835 1.8985327496136746 -0.6535436798423133 0.5023049438070155 0.11863044173715138 0.5128154907490018 2.028663322152348 -0.06577064534941945 -1.5505699598311269 1.533615207630938 0.26163944098183645 1.2593648964841817 -0.6644834545972567 -3.3602184090313196 -0.006817336019705469 -0.30254325054304726 0.4719639809824777 0.28872913353368623 1.1644316178841787 -1.1245971665840189 2.0505329378046318 0.3426471084987455 1.901087214699091 -0.40039849038068864 0.3862418808461401 -0.3586335000397297 0.08890074158239722 -2.3043666553052677 2.7316902742531832 -2.3609499153286877 0.556448627360213 0.530727829170168 -2.9817285759146532 1.739415179815433 -1.7598960923969345 -1.835081689517197 0.12305334912643213 -4.840631524296322 -0.5506576148541735 -1.512357496072472 -1.0567107797302087 -0.014940547087322826 0.9521317875304891 2.0650472737745624 -1.866224780312977 -2.1592786112270392 0.34823142734280443 -1.0657986266832649 0.7573108217219396 -0.692844470526386 -0.05090075830256693 0.36703198973156875 0.7139402840472124 0.2271113339003307 -0.2827127091550127 -0.9967217457245939 0.9126668030337021 -1.25232813852829 -1.187404761771996 -0.6770966662524742 0.5879385947869498 0.37968095816301795 1.18071099362521 0.9850034562947808 1.4803238275879795 0.7388260613765674 0.792207936574316 -0.8741873985151473 2.2731275925631165 1.1396323154175847 2.2054784090036614 -1.551412799328374 0.5700027971017441 -1.149373518679829 -1.9659919062895035 -0.08199111339275585 2.1445224202342446 -0.95230864123705 -1.3080767081126943 0.811547942136262 -2.24374899276725 -3.5088233561065563 0.621660806114627 0.7689385929297204 -0.8180801104806129 -1.1594393266562444 -0.8836812471347888 0.9554426110445866 -0.024586256540046664 -1.0943596665466897 2.696140294419787 -0.2625155974279089 0.20216543262779327 -0.1188678815240136 -0.15308364680635897 -1.3614139579196813 -1.5476122330449928 1.252012737483732 -0.8734508341859539 -1.9016135062131116 -0.030110236283755844 -0.5098753097513435 1.13199171976234 -0.8988232303588408 -0.8016765139169723 -2.468799962128166 -0.4496936966460336 0.8730578202477712 -0.9924201590394514 -2.0574734671899195 0.9408187024863444 -1.8828111584818408 1.0865462457639044 -2.430503348504264 -3.650996755459849 -0.059863173442998914 -1.219699891307634 1.7064812624373895 0.44581014874197705 0.04582899395550366 -2.1594814847733557 1.2982423834457923 1.0131261453070628 -2.4506934146988617 -1.121662719794313 3.958219977134445 1.8702367083327875 -0.8966139674273934 -0.12553505235837492 0.7798139065804622 -1.8201915752382878 -0.13667991476083036 -5.166316891413911 0.416572315459725 2.6082967130338224 3.174533282312523 -0.3082389062698007 -0.7459571764308822 -0.7256155055723423 0.5299058294561587 3.6653615372545283 0.15063389748890663 1.2341864909652807 1.3019427233190912 -1.0873066479373468 0.11981519436445215 0.7199508484954777 -0.43855067312977974 -1.7866293541527047 1.0589914530982334 0.9577700458608184 -0.8835435724959254 0.09213591523518821 -1.3668463055846651 2.0286305425257978 -0.7990538282527762 1.3850741246190743 3.048460457067515 -0.2555944367260624 -2.184758414022673 -0.21820675219363017 0.5343543941634938 -1.4551991080862303 1.20366161483761 2.019397251540797 1.382860275481481 -1.8569144976890015 -0.5004338159703527 0.6729647941615835 1.0060189734768274 2.5984577033790988 0.6326899915480194 0.808011686588748 1.3483065845443785 -0.3409350737766404 -0.47869110759756606 -0.4688609883679392 1.1301168357829527 -4.3375397435197565 -1.2670625608623327 4.680689684211501 2.7430914713313497 -1.0216093327803235 2.087044626741066 -3.179240262558327 -1.0971662029748943 2.714983799328776 -2.773357733387843 1.3523746295658263 1.6947437043042222 -2.083546835712126 -0.13407839951167902 1.5636318544126386 -0.4716937663360798 -0.41030659466221264 -1.0336701481201438 -0.5468484313153403 0.2761651856187407 -4.330432711840581 1.9853582576679876 1.7690595933984126 2.5179802979539083 0.6313866055319917 -1.4667162646984175 -1.2659748078145823 0.5160471848544836 -0.6756155597343544 -1.9928090861370307 1.1662299996425476 -0.21401897696569702 -1.7566918803799747 -0.2494343974659489 -1.7235124923208673 1.7353184935445558 0.05399519021547141 1.4725609868064133 4.76171814543726 0.30629553400760196 -1.9768471174685591 2.8738371257779756 0.39309433849638625 -3.0465763290037358 0.9694732749870284 -5.111022300595622 -2.1172220658926952 -0.5939850000119282 -1.6717929771541777 -0.9244739205369461 1.678459652025755 0.5435240000987966 0.5129922966224559 0.3661842410855824 1.688870938151278 -3.509391627298767 2.224334712296808 0.3075559144174195 1.952470303530018 0.9388304415894984 -0.272037878393028 1.9188870744917847 1.2231297158237424 1.5060629431595869 -0.2886609728530018 0.6478307009500209 2.337986727269637 -0.9048057982419907 5.081821214833319 -3.5910560780142387 1.141829852954023 0.05529283477843654 3.4543688416150635 -0.6954719948830523 2.0335713656836423 -0.18852239332374524 0.7395339883595814 -0.15906560588699278 0.4594267025656267 2.676186983916654 4.439767323668986 2.187498831036666 -0.2951187538173692 3.1647548539922474 -1.5503346148570294 -0.7716170223916121 0.44204503108372967 0.36600623745074695 1.444089493803146 -1.0000101816261722 -1.8103692449281712 -0.4706950952654992 0.3310051591685512 0.5816328329830561 1.1258099002294242 -2.376060484001248 -0.9334564026574915 -0.5730051895823375 -1.5417796304134828 0.9419440451099166 -0.707551727291319 3.2286148336745644 -5.1217744733120165 -2.0493377118251757 -1.3378062704265261 0.45831854880184314 -0.33353458391243174 -0.9394355607457523 1.6632773250443182 -0.9937893714817991 1.4165089611449826 -2.3032532378394444 -0.048353266677874304 1.148427196917121 1.3938377064735772 -1.827298602428021 4.096347795509294 0.7632790131957304 0.5204665228152011 1.0132792354734175 -1.2056412110889625 -1.1360263978891942 0.24648242373781049 0.01062502507476838 0.8237626679336028 -1.0246149771753066 -0.2729822375643358 -1.5324166660301228 -0.9482383763184626 2.151045105704401 -0.2934140409011024 1.1725219501269566 -0.6234282213344983 1.3040201165980079 -1.5087698314627545 -0.29734046642931183 2.09412885516129 1.1772910778844714 -2.6491993172458854 -1.968037144145937 1.0075853029482256 -0.38399725065743856 1.6322035190235005 -1.3275831673534266 0.11746600602550158 -1.3067108813758908 -0.8365254371922389 -5.005587759448712 0.9471380559165887 0.10883801460115679 -0.007177438444783984 0.2669176792981921 -4.483942863125384 0.7422352349685306 2.1876984190724547 0.8886487899265052 6.584414347037241 -0.561405106988451 0.3623175171437105 0.9193078852113211 -0.1787275183547691 0.8659784872399414 2.724382459906595 2.8202720039851994 -0.274987674103211 2.4544523941846452 -1.0881312211902576 -3.4544495790060776 1.265519367643965 -1.7482984008090254 -2.402941339329832 -1.0230362839369953 2.5206155062088107 -0.22895931684312762 -0.5814474766344702 -1.4136255457278961 0.8717700410484984 0.6930956168026289 -1.0626009049416065 0.0959136856359513 1.9893937183930526 0.1793786858941707 1.4373798439623637 1.6389390472289127 -0.03408998334061012 1.9473794921313439 0.11737072876803853 1.5955416807869343 0.3147362281766541 0.2137631745958989 -4.960391118441421 -1.252273857277593 2.029567934039964 1.4372010903756878 -1.1703268330543106 0.7929858531650542 -2.0242523478247656 1.412721215350058 0.859465372978657 1.5259063859887552 4.113378362224363 0.2134587481900504 0.5246064575063415 -1.097937091144713 0.9186032500521752 2.1813755094571134 0.301863937317417 1.4740533934896434 -3.6985302181023356 -1.4246985358247446 0.27896980037793767 2.197489023906098 0.02899289178040423 -1.5579522663260974 -1.1025442356195896 1.6883799571596014 -1.013668162259458 -0.25778446725088083 -2.3085285730132834 0.3330551870257145 -1.6086677778973464 2.1339776820290295 0.5688535267149272 0.4140054485691065 -0.016560535041077438 0.19195048765900427 1.4740057411745469 0.3323482938703233 2.993065220424818 2.327925299309301 1.2412543768069295 -3.226082211154394 1.6354348994946766 -0.01843360806353777 0.17567120582559925 0.8173860471148267 -3.407514547395476 1.4049147839953715 0.19177291857912482 -0.9276928778207553 1.7992298757163212 -0.41877064672743697 0.23570863907962836 3.4671053823979125 -1.5216133418159141 1.0547548402019005 4.455085325057162 0.359516130789773 -1.4263508921906456 0.7506389800701657 -0.4732232983948846 -0.022684315195090093 -1.4727058604721461 0.38695520883617673 -3.0846293711709403 1.7561264319072867 -1.7165490125642908 0.2620527838132982 -2.348068484712224 1.8748048136554203 0.40129124178850706 -3.961517471509166 3.365651230041167 0.19495542030600313 -3.3106058237131135 1.1864920198637687 -0.4985854224419866 -0.6499753007028809 0.45344293417707815 0.13101627998820237 1.1205857049647852 -1.9491139527655987 -1.8375842120196617 0.0629514199714476 -3.0491786312196947 1.5116553439412077 -1.2144491885379929 1.7665593260562744 -0.9207047618459836 -1.4655523451386034 0.6364257742042405 -0.7648615732996884 0.09284807371224335 -2.1047079884868802 -3.2506499953136023 3.4979131839006925 -2.6148445957611304 -3.2025655729232043 3.316590439670257 -3.2022380417111904 0.4651407466507672 -1.4354533908759124 -1.5007284929734803 0.9563284420303078 1.1812267697047512 -0.4883417495470663 -3.87810357973851 -1.2123803213914832 0.6600226029460374 -0.4333596882272366 -0.3889856741560198 2.078291329752855 2.097261257826336 -1.0878754843845966 1.372623291146847 1.324488710400519 0.7896692435595115 0.6732491149465312 -1.2396692155863542 -3.235697979187643 -0.5853960367416009 0.10242849048670762 -2.7833150956278683 -0.49636038101959584 -0.6917685239603532 -0.34312533045673804 0.5640630622559386 0.5770994962236187 1.2306517414956906 0.04673195919069945 1.881624288000463 -1.5745902380003451 0.20879576334157054 0.47600237785898125 2.143144443869957 -1.3658372969286927 0.6186775090725091 0.013439632009687107 0.45825620711939324 1.8964207003435878 -0.3150228649118623 -2.928500629604423 -1.1380793379311471 -0.2993450328147501 2.58594616533151 -0.7558462944926404 -0.09289929717610651 -2.6210304228766406 0.28221417187765724 3.3250108733760664 0.8308774289164054 0.5426147888924386 0.02141227425631256 -1.6176935836175699 0.4361668126657426 -0.49926224679224473 -6.563418883594117 0.15833597611239167 -1.3042312174404518 4.389087957218571 0.4910840171528306 -0.5033921582247768 -0.24899792078539018 2.4778749136311364 -0.5309406034914642 1.8106568231150855 1.7335158991277697 -1.1288657452507525 -0.704372794585641 1.8358808263742117 2.1484394403723943 -2.3159012607432548 3.848606548473932 -0.6379181924156618 1.1407382453934256 -3.4502477597756838 -0.2984254949067135 -0.7745643430041445 -0.1624745088634798 0.6958175903595122 -3.223256830810843 1.5468624698360278 -2.0349644518015007 2.603096660691222 -0.1087255328539807 0.018341252482242647 -0.844612231623998 1.0600185598870993 3.590895288723514 0.7663765004443556 -0.6609006446335061 1.8278267279807454 2.1408196931053536 -1.2905574081557507 3.4055874555382615 5.411405821897605 1.470930654472101 1.3857737078113574 -1.5027056315842795 -0.011388319063120805 -1.138470512379069 0.6590429498038188 -0.6235586333121222 -1.0475626949457848 2.909054942227275 -1.409030553865726 0.1674792533625496 1.1142005801642194 -2.593819082543498 -0.37625555966995894 1.9470816786585288 -0.055605675922399844 1.3100271950439182 0.36816675044297015 -1.9960032491998854 0.2928043469612695 -2.583255409793947 -1.505588380614102 -1.4215090694265826 -0.06200193121820863 -2.1383032494489145 -0.8058383677000317 -1.1963615535755028 0.12262807022053174 
-0.4338317430664296 -2.8387306504878334 1.2968550850739036 -2.5455543292248777 -2.079671738185988 -1.2086316703824316 -0.3983351890111558 6.400368668785322 -0.9066524779999181 2.027045338778059 -1.1898637361252533 0.05098750505893759 0.09992675157676621 0.9555865765994417 0.2579411909424209 2.011997625899348 -0.02257659812084275 -3.316862025342659 -1.7868262633775693 -0.565262467403209 -1.393527450262731 1.0846842329088262 4.783328622318209 -1.4933384681773303 -3.1596398496799902 1.016396500917265 2.3321786989774993 -1.981269901260664 -2.6829814001679377 0.3367625151742921 -0.9436575394195174 2.0724799916434873 -0.6155755953668052 0.3498404829802587 1.5556987815942058 -0.8450937365648542 -0.23091781832847988 1.7677015919249761 5.703980479318974 2.6895304719900306 1.58273850886121 -2.220736463046845 -1.248398393015493 1.353090737079904 -4.889644195470539 1.4337025498273273 1.6339850356059487 -0.9541818781693516 -0.6974643804578632 -1.0532052797999927 0.7121176054677744 0.7746382399212797 2.530859820715183 -3.3726581493580925 -0.4582116982470169 -1.0036219432821054 -1.52400675490975 0.02585122268683875 -0.40870358502494913 1.7384599978753952 3.5961618272458504 -2.7059331654099323 1.6967901081415164 2.2614976929727733 0.5009838456483929 0.5558847527417919 -0.18796254592139633 -3.6785567025450474 0.6022428403430016 0.16503812781293004 -0.9210261204218203 0.6999822398705269 2.6824683615089304 -0.13147202570702257 -0.8926905794733669 -1.6513259211558355 0.2870746874298281 2.370341478307624 -0.7143814577470033 2.941044702374539 0.07839474894168712 -0.6181879887435748 1.3659867864716397 -1.0870129914176385 1.013036941377286 1.5239752194551768 -0.7887075741745126 -0.6081462864160527 0.8413947368419173 1.4202033728025496 2.7270986130487245 3.575505292779441 -0.7724405473235575 0.5371857854148238 -0.8664610419810054 -0.6779949833567431 -2.043874274837414 2.012044126984584 0.1257695828151175 1.2423167422516912 -1.4982236304506804 1.5463192951653117 0.06551687027756135 4.217906194831233 1.917462331939283 -3.117407599768387 1.660325702700158 -0.731139460410524 -0.8788435783367937 -1.7539950544610339 -1.8894834491121844 2.0363692150491373 1.7478216125857613 0.5749624736098364 4.566025124897675 -0.46382183805249033 0.32842890956368076 1.0624414457748812 -0.6183937351071992 -0.5169182111062345 1.751112239714809 -0.8058659111148212 -0.3925476700428523 0.2564047518480295 -2.415384880562403 0.80436683079667 -0.8454514891051104 0.715763214026087 -0.14523063707978215 1.5871956707632018 1.0748993249433794 0.0214911122308197 -0.6336275477351399 0.6328668496077197 -1.2244089239242106 0.5394697479000256 1.6784022676507784 -0.8834977357427272 -2.289698029895147 -0.17809129820315728 -0.2946338197445642 0.26472367977094546 1.9323688396691903 -1.9310573833749511 1.3229368349682933 0.44929685019567767 -0.8759197819070818 -0.9020944630341102 3.2795648158094632 0.2666010820228927 -1.823380145104763 -0.7422099307614528 1.364076141531896 0.9556589172974294 1.193466010014046 -0.41589734783411025 -1.5964835598640936 0.403135354132034 -0.5557601139331347 -0.6571630968436872 3.4386532062675688 -3.560293721970322 -1.5643913797359217 -2.5971004607775403 0.987544937416974 -0.4321868311158028 1.6613715528769544 -2.612260771084239 4.3811533080604566 2.0547479471773666 0.9188883047049204 -1.235348681259996 2.512421180319253 1.0839838639124748 -0.4623326863455957 -2.1233020171968553 0.062439353620662094 -1.142313639874397 -3.6328885750730477 0.6374755897662391 -0.018602653349236355 -0.7606491263664685 -2.1935911089460576 -1.8525898988168081 0.9113739537540002 0.783458495205834 1.866133514649895 -2.0003676365782637 -3.521959077729647 -0.5820533475329301 0.5035988863593751 -1.5760595031227984 1.2174955989108243 0.1417391143004982 -2.141689488452155 3.322721553972989 2.536018979748274 -2.445592076809617 0.07884835775024776 -0.03276830520558685 0.500925234128902 0.9733189329181368 0.9006797818791585 -2.1157783624816258 -1.2891331509824064 0.41368427674000735 0.4839475201107799 -1.2568843628317938 -1.1625818428015224 0.43137306576341833 0.9401709115388189 0.1180374033211489 1.0902450758854405 0.6858097753413287 -0.3411254066196889 1.627206244642996 -1.5411749058261703 2.65251658421179 -0.3951977341430389 0.6986630251641008 0.28904980190647905 0.2099084741702344 1.9953673841235293 -2.3644027731219275 -0.9112020782644077 0.6084696899778517 -2.0107008698708477 -0.7693155045959462 0.03452633796811379 2.3684858314664066 -0.9879091517093308 -2.1998639110136273 1.0137220013470838 -1.2275873525377456 0.20076602771633562 2.5180782685786016 -1.224062618028529 -0.2588412026362953 1.3946871337083244 0.6699361679547333 1.090666946927533 0.9058617410973725 -0.7409078514169377 -0.30683569317229303 -0.6655309339435515 0.13627273327775952 -1.0776833145314988 2.5075695072561746 1.206516914996548 0.8370035783465578 -1.3387856239830278 2.9371728040201077 -0.7910377062589408 0.14556104664388436 2.1739249228915574 -2.711272381279038 2.0212535536816265 1.8263321487518651 -0.4282556756448604 -2.102612428260667 -1.2421787397604318 -3.8891939671544216 -0.861947457488112 0.43850386862412166 0.9442822999269858 1.74905408464985 0.2069495326437533 0.6127195391466911 0.6618616362071951 -1.0302282688612414 1.8405430293017986 -0.03456598452787367 -1.2333716710628422 0.4053825318694929 0.6021571325811667 0.7074656363147036 -1.0130004688869347 4.903209738991844 -1.0976581471522793 -3.716203187505532 3.0721058962706214 -0.5472647406558272 1.0936917681190241 1.153273395937792 1.1975338436747553 1.9510514019197076 2.7020512723506727 -0.6869512312206127 1.4742614741454514 -2.24034620006551 -0.8726265698024747 0.7265277889246695 -0.1368018325611996 -0.24098700385598396 0.38890848592339977 -4.088066310542563 -0.46101093178856983 2.126796342347609 0.08050192169420882 -0.2340652592290659 0.04964530958416529 -0.5259549040346265 -2.2557659244321706 3.8173816722011926 -0.8848146253095219 0.7819917466924778 -2.8332523253916473 -3.3732596845891627 -0.019403798952959468 -0.5191389671573363 -1.1985142195929364 1.1868506396912413 -1.4265242151897866 -0.43400125576326565 2.0810532632761594 3.1134980860588737 -2.0602238245589746 -3.377267195932538 0.1927813443390407 1.722327523235684 -0.41632229701180606 -1.6280709480156181 -1.5319720177424874 -0.295202019676338 4.02066087187143 -0.4498450445153444 1.5060656214948445 0.5193214194257431 -1.4565547949211115 0.019432695293650496 0.5254978575112431 3.2415262487496457 1.7898311233975939 -1.8638020351481162 -2.6562382546465795 -1.5705785812224737 -0.7522264211675813 -0.5845544925746844 -0.3198835299990158 0.2954542100050013 1.3671679152654699 0.6120803484190559 -1.4080522506388695 2.722611171906819 -0.8124255272724782 -0.19249821301093684 2.1327030501656488 2.0430551622689763 -2.541367295051986 -0.8084207019725445 0.4447324073833477 3.2863430107081535 -0.20646711351376218 -0.04398462356666293 -0.1086869020344529 1.7273475041737962 1.6530771918973 1.1300504574606638 -0.544553660681543 -0.8065931832275607 0.9656602231656516 4.045909181520562 0.205971463090022 2.294003983325767 1.8280702876986563 -2.522478825430658 1.3048228886621596 1.007622362566821 4.338768652230637 1.5048790330534993 -0.7960210496018189 1.1202591569312002 1.6207616493947106 -2.773146245033533 0.16216280454510074 1.914145813367887 -2.155129377300879 1.7006588308916877 0.8151057532525756 -3.047710750546682 -2.4822094475506296 -3.6334790848541 0.48476240226547745 -0.35945703752800284 3.133795140986383 -2.4890188682395724 -6.947030934970583 0.9756670377923525 0.538954565512004 1.7409486898174777 1.1000573670902463 -4.1848835224267225 -0.09658348990227295 -0.8476654355529748 1.7300959234825655 1.4905596093638844 -2.651043795082577 -1.5339567771778913 -1.9275776927003028 -4.584690349278111 -2.4391286987482115 -1.5114572145032665 -0.23618547932781564 1.4072153675004908 0.00487149629048033 4.343803293812058 0.13955164006906387 -2.399028973905506 -1.1464216629703436 -1.6423484065771083 -0.4592414569688108 -3.8633014194667736 0.6484152313112854 3.606849150808232 -1.1906148494719897 -0.02791909656384166 -3.6720567423600556 1.0159011825172588 0.18289998109355418 0.5399390168837074 2.848460364233115 -0.3625431810898564 -1.4880723793217308 0.20361620054170596 1.4253390175900607 2.058285187085337 0.4184050579167318 -2.107616403037395 2.258963765838955 -0.17677024491822405 -0.08613245471244155 -0.5136632824792375 0.2158106112078341 1.4736895404123436 -0.5361977987576924 -0.7351907595685143 0.01548385611967627 -2.3703314289973623 -2.861882738151799 -1.5903623673317078 -0.6339576397645631 -1.4986589069354954 -4.968771713552001 0.6095530981266317 -2.2588731178891988 -2.293030236799101 -2.7904725505931727 0.16210477125698883 -3.336044045813094 0.1605250472748348 0.7281742403010267 0.676619399552442 -2.5950173030847328 1.7047861295763804 -0.2176198842221242 0.35573763457314833 -1.388709729349057 0.6819292281334774 -0.8658521147227504 -0.4400572899779772 -0.05815851560287254 1.164024842960173 0.7105912170718985 1.3437332839514684 1.6118521378674184 2.6707478645288876 -0.2403848625077274 -1.7018277175398093 -1.3637618525754318 0.6208085285778893 0.21332572672758812 2.8453698759712727 -0.4679571840044968 -3.2271040053437243 0.08988083773843368 -0.23804157520385844 -0.7311414152311398 -0.36188061035215074 0.7888744056186612 0.4710618739774433 -2.2927558686694764 0.2557919849177627 1.4524033235059859 -0.2976551652778519 3.1360854897106867 1.0803581080253684 3.664046487166284 2.6371561189329595 1.1305917593946762 -0.7295096194674326 2.9336643725066827 -5.2944136606546595 0.4306220795983658 1.7464196742607354 -1.8534933841775403 0.6707225296248484 -0.5164011712669642 -0.16617300029239704 4.191726475003345 -0.090747996689783 0.8518407810594432 -1.1007319725933233 -0.8708322294325301 1.6365228680924204 -0.9590479707173465 0.47742479098721047 -2.17798654767875 -1.0323072509612161 -2.412369410456964 -1.1565995485050664 5.54075881395218 -0.1337623150874057 0.8516457588613319 1.6204935953066784 0.21326855018493382 -0.984574669210496 -0.22919018242253406 0.5212864250245511 -1.2230635718422764 -3.090005883189214 2.6400658220570903 1.8839226477157354 0.020960169098074913 1.4941897820713514 -3.2876284176282597 0.8320499095548631 -0.73823525254437 2.009408796825775 -0.1570307600590499 -2.369022406322379 1.182342533761805 -1.4981650214837416 -1.565185561150574 0.39503383739585085 1.5760357206346367 0.09887507484465761 1.1902344405910883 -1.2512207643817905 0.4868598706136274 -1.1027873269980688 -0.8432084466797075 0.42519059904128226 0.7360937908044897 1.0005221770558657 0.8275021322302228 0.25840572435880493 -1.0975229609604402 1.271870548106405 0.8145407222987324 2.638150888869541 -0.9608317352851804 1.3461089545420362 0.167608292143308 -0.5013994602705192 -0.15941865226217997 -0.9790525757886617 -3.2411325411686334 -2.9267124302333007 -0.5438466180817699 -1.444695177190247 -0.9893705507956748 0.6298353850645442 0.7075575727043841 -0.09658449110917544 -0.16009829255395613 0.7597798749813361 0.923328890636059 1.5988183212208606 0.1622108466003476 -0.08454406724099119 -0.3418032651939161 3.978707178513281 1.177679959006693 2.740192041868663 -3.487659379906455 -0.4431157819958116 -0.3189196186604469 0.4569019576388391 1.5055898847952278 -0.00398928380495242 2.575761878035672 -0.9049055288721467 0.6964747903186531 -0.03324933606325494 4.240968736225107 -2.8128193370912857 1.0981115617326973 0.8276355124469235 -1.8071042299628257 -1.043628581084007 6.2417575294716645 1.0504046262875328 -1.5508596952905593 0.9647808091667821 0.6680818653657941 1.0404139633470149 2.2359768724303866 -1.8400455497873451 0.03578987567142165 1.88716501166283 0.38242191468266173 -0.04020496296956813 -0.8280449938663882 2.3039647198860753 -5.165146153422419 -3.889145844792181 -4.850150536725847 -0.09672565491327798 -1.6438014990502086 -1.328863519824237 1.4828564965922608 2.4686837130880557 -0.4693397737331038 5.58489864017905 0.06873882045806481 -1.7562250251405536 1.141792220903004 0.04621856396084058 2.0125890706508294 1.586654820391609 -1.5982812897869616 -0.7096174157692203 0.8930090357304066 2.552835364817001 -0.8782720739337381 -0.2461591248791478 3.525251990064681 0.5790647265226403 -0.2762262126457994 1.950255565286813 3.852786047573406 -0.3146144330829734 1.7614803579919174 -1.1224302351642739 1.605331911033198 -3.7805516142219178 -0.18098671676245842 -1.6845741584861396 0.0030343869162013856 -4.027772794423733 1.5606335152480395 2.518127528041921 1.1475949860404018 1.0034871060052908 0.06916237503873524 1.3487789829539398 1.8966464173148432 4.296848386983255 -1.5021098924722538 -0.9407362821494117 -0.7497660680300917 0.5853172210466223 0.03256071231224455 -1.1890095055092744 -1.561273816834674 -0.11875610237742282 -0.8298962373881364 0.41813804395996734 0.19831371528144862 -0.008512882663624804 2.159042324670351 3.1292304419127164 0.37739427208895066 0.4026565344671045 -3.2215755661440943 -0.9494764762104775 1.3288005447220796 1.2378826995366794 1.6600103755770803 0.5306654509953505 1.9755714820747565 -1.0772368761555562 1.941994483098078 2.087660870333926 0.8605279344463613 -0.9365537374483458 -0.11600702379477312 1.730885415774088 -0.8653939252042884 -1.2670477114255843 -0.38005075395592564 0.48451822935155714 -1.9907414811159942 -0.5420673530646087 0.577710271294512 -0.07654805146781571 2.2511401539649922 1.0428708528411526 -0.024395216775548116 -3.278721835421527 1.1319133729611288 2.0291477499385553 0.6749755627406105 0.9597281534927947 -1.1468485379891127 0.9350294256181192 1.295386825186248 0.29891236102099417 3.3925891223735265 -1.0516347730206792 1.6349892622603117 -0.4885929101945107 1.2596900582379125 -2.3922252964694386 -0.0012287547286269336 -1.0433107691550136 -2.8902542010868193 -0.7031225029790806 1.3165415807997003 -4.187030584662975 1.098371581807226 -2.798765098017943 0.599157856952626 0.1134905607905888 1.4356677904355635 1.4418511471687423 2.321540882834757 2.5700228884484653 -1.5419098771113524 -0.6773402799600703 -2.585356413724828 -1.6168070421133047 -0.7928644259520478 -0.03801745429951302 -0.23478752699078767 -1.6485140260334232 -1.303290699989155 -0.20714460096885634 -4.414005810753 0.9591032601337718 -1.640263299629996 0.5068982967823278 3.352168567479749 2.887416132059926 -1.7249145803320207 1.2053766093316047 -2.768390407867609 2.841450254957144 0.5791374682023118 -3.4147839259965873 -0.51981576226511 -0.7236775970187219 0.6937827825192002 3.7494122481480474 0.7364260310567073 -3.1226086799340864 0.07597714316933488 2.0165058870888486 0.21486534689829545 1.7011449297947079 -1.4895934293361857 2.5099147686636 0.9004191153018947 1.9052052677713183 -0.038441176196066476 -1.1637515173148296 -0.488479429597088 0.169809329007071 -0.2808920879444928 -1.359061700320914 0.1542964550326698 -0.6981665859940033 -0.22947034185370369 1.1188984359496805 1.0745687967916275 0.6469012927228276 0.1706691179939551 2.115965200691798 1.122521585607776 0.2749129674834071 -3.018086940773858 -1.639738231766201 0.8425136765545302 1.1315307918303716 -0.7593529196750736 -1.1539052625868618 0.3153766460784478 1.1290427149444704 -0.4877588359431299 -0.32770464919441294 
3.423845067385147 -1.242210181657807 -0.15207592753730093 -0.8245925626782031 -0.5142838106046227 0.31183221631463404 0.2775160916192455 0.5539197346723941 -0.4161012699661928 -0.8936049968816485 2.3924157127984262 1.3003196606351597 3.0138682734830873 0.7596374910736572 0.6330628451644249 -1.473438279793836 -2.348569562897523 -2.780678045730847 0.5749801787907051 0.22721172427827743 0.2529304863030881 0.8212357843412972 -1.6051128929736476 0.4660583828556755 -0.9637887470499225 -1.3147793038955569 -0.33762750430081634 0.6501994168996299 0.9854331949728101 0.44226183110621126 -1.7836362053588928 -1.3380989313961713 -1.1340905991285897 -0.6409200345683569 0.19170518991850313 1.0805085442170543 -0.613396568426916 0.42444273187547715 0.0843016684497992 -0.4496971258779068 1.2127617869752998 -2.08923697331096 0.12198956174359978 -0.9948635626783763 1.004088445703733 0.5276823182861079 -1.5613517079999726 -0.9024823183024999 2.9112738825134925 0.4809238780409073 -2.7569856368597874 1.6764850944425993 -0.3340235695648933 -0.870628902566439 -3.1846180898041085 -1.9281239805826955 -0.5774177771443502 1.3173892083400818 3.2075961022560686 0.4347868407178734 -3.101318847072121 2.422664900189772 -2.5872807238528286 -0.8560416617153273 2.578326288646439 0.36947786611406996 2.160925908278409 0.2721603254739831 0.29824389936350293 1.1363397101872128 3.303922264834546 -1.0034031556745147 3.608743258927207 -0.562052601536902 2.8008783210962305 -1.7150646082120669 0.4294048172057797 1.2130736404275901 2.561928985603644 0.7432599406015387 -1.2069307731565964 0.6268419518640973 -0.4565386384604191 0.04607627105598329 0.5622349240891205 -0.12222995825286395 2.3357821921586384 -0.9815541681139698 2.3435352390078994 -0.9891091837347071 -0.6275828541170368 -0.8414137784927087 -0.10832820628770162 0.6677000322769494 -2.7144973224999327 0.17885593356804805 -2.6641953883853433 0.043030267988752986 -2.9972429801915603 3.228626775400085 -1.587831203710952 -1.5794394082055532 -0.5864650176118958 -1.3346053505111792 1.163654762117039 0.8145952721019919 1.8275266966819608 1.0456482951230301 -1.5187520023533936 1.7082755268610912 0.6013581916141444 2.14659029347703 2.545559131888323 0.0684910653559353 -0.12144329409521717 3.1820396972151275 0.441617159816904 -0.34637224300426667 0.2544175430101061 0.8119389740532366 1.5019523537664425 2.009645489081475 0.9364147978597218 -0.8410835397240084 1.0691486713431773 -5.616453159742994 -2.9399338757278697 -0.38090316137299224 -0.19724372573908353 -1.903253681434225 -3.246546127099077 -2.454025692248668 -1.0103427093728503 -0.37096640271724257 -0.22403585912875695 0.7386818993048073 0.045947023114341526 2.2273760083182657 0.04495210919451912 1.3290747176942082 1.3875835241389585 -0.41742426270757527 -0.5476578930838168 -0.7099716051845034 0.10777603725896674 -2.935797412166216 2.950525358564095 -0.30749234001040915 0.928534740085981 0.5896026007781683 1.9679720297570131 0.3308312143256292 -0.6601124525304127 -0.9233455469083904 0.2487706822000878 -0.9177112987689495 -0.6028310559389621 -2.3441067875046304 0.5082294015137652 4.926496740340645 -1.561693942070216 0.06725498816380646 -2.63697291092666 -0.6018489273007956 -2.9187759050010547 1.4000261335303923 2.9917465390151508 -0.9419213583023079 1.4125902124858116 -2.457943068569497 -0.5743520103128013 -0.37695467398878196 0.7260832428168927 0.7161314294148303 -1.3813815012748207 -0.454967753039039 0.6582994552325665 -1.068681756774333 -2.678835477284611 -0.27880874385934024 0.0976518918165062 -0.1717880290056508 0.6727518081387777 -0.30053029318608865 1.654559142659832 1.6079963591211954 0.2799668164609101 -2.666102594161518 1.4478024934299716 -2.757928080835793 2.427247572511382 -0.5507005354271093 -0.48834739704979785 0.3889943393257101 -0.3459343532605345 -2.3800349033346024 -2.5742600649586254 -2.9266592271945187 0.15131977215478398 0.5231864800456039 -1.0173480759760365 3.446496772497678 -2.221285050449822 -1.5448560371674647 -1.177590486269246 1.298142087190284 -0.6636781812429827 2.4587395642908763 5.206680987609329 -1.1369181915804578 0.7342916699040308 0.027771691087821647 -1.3632645275785142 0.6772460727755453 0.9511658589357985 4.007223020637947 0.9864629726552995 -2.5088198047362797 1.0256126259054972 1.7446046766819063 -1.9261061302933025 -0.597488703693276 1.076194946066935 -2.4070121984435584 -0.8277018803043463 -1.3215212281528816 0.41531705371718963 -1.0303550576324192 1.337597239669625 -2.7027590938691968 4.036817879077599 -0.24909660685566157 0.6251494412534055 0.436635865435943 1.8339694032545821 0.2485901579315237 1.1842294849420052 -1.9331317435460258 -0.7856577144020497 2.132799639695309 -0.420351696734661 -0.3363985265486567 0.27671547965547977 -1.9064686863160432 -1.2843739240932899 0.17915908014540655 -1.5419123043672986 0.0855103967209256 0.7955891726468937 0.002727829158204498 0.9070870617064484 1.2189046923891367 0.2826962389548827 -1.216041650570147 3.8324898956083775 5.8344969085898954 0.14889683658556088 -0.2573147016281252 1.4592774503941275 0.6299652601943635 -0.382770169093748 -2.9136162147881195 0.5766562248379091 2.215579936783732 -1.4846283615105966 -1.448219339444791 0.9334460575653201 0.1908203631150961 -1.0464349704528852 -4.367945008231514 -0.012164559231735275 -0.7989550221216103 -0.7650802187294069 2.3714911539877286 4.318308938849135 2.5950738910790254 -1.1185240703835808 -2.424596610699339 -3.271296794095379 -0.8106206652759178 -1.8787373878072051 0.17531663471815562 -0.37099892326787837 0.5643739550786189 0.5968329079065764 0.1545608438529102 -1.4686508486295313 -0.8198259846454694 0.22307708633314433 -1.7820302124591954 0.183247979150184 -2.0117393271069526 2.000934536862826 1.9916963116713562 -1.882914963273874 -0.8897386374287718 -1.792801624869617 -1.371162396088322 -0.4781353748266805 0.10327348472860538 0.18443539965718014 0.40279013914251144 1.93839605851481 -0.4714304467039043 -0.197291481774612 -0.867490244558646 -0.30851425351103534 -1.7154178164571763 -0.5068322313320841 -0.32965589869157036 -3.801289691783502 -0.6779070822034209 2.330261962821064 1.6126333637564287 1.6945978020200108 3.135444723221231 -0.6500951608733031 1.2495573181183386 0.0768751520802485 1.7089836035700652 -0.024581338310719396 1.4878671909998777 0.19183859371036596 -1.357177052490182 -0.9761235139179356 0.6434476879882544 -0.878340324106953 1.5250406794600881 0.8170471512283607 1.3441882422635891 -1.3457959196896077 -0.23720975352459592 0.6302455447983639 -3.258647653757536 -3.1193711483171165 3.300430505942296 0.5262478417040676 -0.0834352574316117 0.6713651694328887 -0.6155731666886111 0.08566317533353614 0.3492226174760353 0.5442992895383587 -0.7547784107817178 -0.9385104419125267 0.8303512572509724 -1.0619606401709643 -1.3190623355803268 0.5516173000515305 -0.6010897589935355 1.631738994179098 0.604601049349562 -1.5893148846188614 0.4271517292598886 3.2887769010559 3.386738522071245 -0.9447059629620841 0.3014900048065586 -0.5286790351249031 1.1481559032331126 4.091335152722451 -0.3965425075582801 -0.41450995850421585 -1.510874368407371 -0.29346747699328 1.9682333018352958 -0.10970620902916221 -1.3508666831041887 3.5441091960682343 2.6211826322174825 -2.6681587877539763 -0.6238175047078311 -2.0821643003176016 -0.11387274106494669 -0.109847696264594 2.44059945897465 -2.0607258948878213 2.2466430338017003 -0.2169363229587951 -0.5983693645380433 -1.3159231950011974 -1.920100740534978 -2.231376080515476 0.9423596098938593 -0.588362771926897 0.6315275785728081 1.1483560868499145 -2.9676210453730345 -3.1135214785448597 -3.996445605786716 -0.13257600156680333 1.2945103755234606 -0.10549786182218183 0.5550822506767523 0.005597660658865095 -1.278024719467565 -0.38703772992307606 1.0024942107010757 -3.9599901400091793 -0.02943494572739464 -0.8953850651029319 -2.0976873963175806 -2.0348179845578613 -0.23279445408240637 -4.145137141012063 -3.329241825532747 1.5024947085311058 -1.1705416215571245 -0.5986543313563938 0.7461993973921481 -0.47995952548912396 0.39841472504152325 -0.07693933796555684 -1.4592440037691738 4.566255501476308 -2.0527577197592257 -0.7876503631758212 0.6149195715878087 -0.4818896282818728 -4.557923730380596 -1.3460263029226887 2.1333320349283063 -1.1647516598046768 0.4128757007791892 0.10713212976971223 -0.4430824724857213 -1.9357032345575758 0.005066956979457099 2.5013137905750296 -1.5391353089660396 0.7333752540326213 0.45601961613950764 0.9929980747546169 -1.813323103624301 -1.3444212604685155 1.7456235229068378 0.9988917305991771 1.271466795449093 -0.23797985799034757 0.16980531282082792 1.062804565230892 2.7208654145367697 -2.7952549141350045 -0.33708625765757483 1.432315865915697 2.0910421692232064 1.5017642177334967 -1.3229840376959352 0.19559180946078555 0.6086218109688911 0.7491822124754827 2.304238641694683 -1.2377203306196416 -1.179912823062824 1.650546277006161 1.3654644073766071 -1.128354250072008 -1.1755838347750274 2.4748558485604955 0.3974975864605866 -6.713032811581578E-4 2.357491492899676 0.35594561617634374 -1.5428027406910627 0.7299038873185323 1.2003030775014163 0.759400373680148 -0.2894924103198091 1.4259692259432928 -0.07730054228902 0.7500887422323689 -1.014679602782919 1.1892399497123367 1.411143846388256 0.35470168184638545 1.4944780595217106 -4.938389171248326 -1.8851480240124852 0.5439301618891754 -0.991346265445321 1.7983887250412287 -1.9086289612210325 -2.7219492168906347 -1.9111363163224964 2.364230271862787 -3.151136389704961 -1.9782546576451825 2.951146487530568 0.216778669137511 -3.4507864313323338 1.4469598361744769 -2.3742180631992107 -0.2571622206961244 -1.5599492949461276 -0.800097975702671 -0.8711481605335665 2.1488142948409554 0.16158679064040493 -1.9765426344528272 0.43719777895071876 0.10711426535271608 -1.8350041552059433 1.146566070914703 -1.207316875682193 1.9507684424061005 -0.6350441609710199 0.2622023087889106 1.7794750002842576 -2.3028009156907907 2.10716629774817 0.47985846250408615 -1.183471902347367 0.35534084407700905 -0.7790503400802095 2.436065531113252 -0.17009042062806648 -1.0458593772277234 -0.5114617936400604 -2.462657220315017 6.1513732847997895 0.18074757694093732 1.429818365514736 -0.18602178340265468 -1.4462337117934396 0.8353756101449261 -0.5044073213322485 -0.7873024683994434 -5.537775985806467E-4 2.904676959620937 -1.1406114030245298 2.100827930220742 0.4615212449538168 1.6805816657976336 -1.3267941711599123 -0.5563120936353599 -1.856051905416557 2.853347513556541 0.357475901241191 0.6692495935314619 -0.3820831369846046 -1.0631293042261603 -4.890881904611968 0.953861889074097 1.1940245619022365 -1.6177297934551031 0.9872183616261363 -0.9148854878726099 -0.331906084973129 -0.10625325377787145 0.8795984920194261 0.16580463743673338 1.6510447541662876 -2.8076284164186727 2.107598538494585 5.24950348694391 0.7783629487989914 -3.600477189958994 -3.2665437198151914 1.0671248967325273 2.3837691764047184 1.5413682410426401 0.36541545459799984 2.4696925888097376 2.330971074300863 0.2093939648733391 -2.467020526003896 -0.15845466769940753 -0.8708908151529823 4.466154736121189 1.1310130948671748 -0.08257819229226554 -1.5742013860260284 -1.8709863038723809 -1.3251360322495622 0.17599383065559132 0.23910125493796797 1.91313233280986 -4.314151069002484 1.1167705638989986 1.6956077133487018 -0.8678363291921012 0.0365618934825497 -1.9374923279563099 -1.3957290703130358 0.06043870022967157 -0.921418484504021 -3.67328205486188 -3.669586891023784 -0.7913874819931948 2.461763372823411 -0.25393952952585547 0.7709435138696191 1.7213168252353432 -1.5957056869124115 1.1400895035703196 2.364385744474582 0.9877678739638197 1.1961676323626504 -0.5612960158677194 0.5016342671265019 -2.033796436815538 1.259876204126326 0.6481556114880708 3.115749598448249 -0.9755176584289414 -0.386840403791296 -0.13759847333506917 1.9195435372185154 1.8504996882680649 4.735602960779899 0.5662004177721116 0.9290905963571926 0.21814402588288315 -2.1820077055967153 -0.2860919000362304 1.0268306658259743 -3.971501236372059 -0.9258056811678158 1.4800395989807664 1.0496247338706448 -1.348593052897097 -0.17138900637431653 -1.5993001281317247 0.5551552315317653 1.6001302111330815 0.4768235115743874 1.6675078588039287 2.6543877483879146 -0.38616573490295114 2.392852165871182 -2.7229708124683327 1.8634776054656672 1.0873902372698863 -3.1236288578830402 -1.282875496817628 -1.496537844407486 2.1705748057349084 -1.3654005442143304 -3.2796737627455004 -0.6790547106676399 -0.1796392495869654 3.8843491028706483 -0.4280306385970418 -1.1932531161775097 3.435339687035853 1.0689844295085604 -0.10273936149370119 -0.37149819230479586 0.7360956337268862 -0.5712664302560123 1.3367343419525 -2.41411635709955 5.181944025980284 -0.45642254850483216 -1.604118607018002 -1.302314170492326 -0.12648541913602085 -2.580359658882969 -2.825511659140374 -0.4489483566334023 0.003300154322270896 5.097697654162586 1.3161299330573786 -2.307866910904782 -2.458362802688493 -0.46363723088884284 -1.557041505936501 0.6174062231643317 2.0389918259468627 0.8867529533041366 0.4293984728818586 -6.578960290707866 0.5435455961303901 -0.6032674823912086 -0.931672992973325 -1.7997680252124366 -1.3481627012105741 4.220162717803395 -0.36669274853033046 -2.4994438771838725 -1.4229189135602647 -0.9036521910462832 -1.000217313436992 2.2842901060650256 0.9075863412209815 0.7575545351260758 1.9557164587891736 0.6086270439769196 4.112403924444747 1.7100926917347437 0.06164959895528979 -1.064859258196449 -4.948793023761396 1.2290463453459335 1.6746352910806814 -0.32706977608429777 1.3036883756041426 -0.5818331569356422 -0.4779690995802785 0.23397998678495843 -3.9466485319419298 0.16879925459901207 -1.3327880806067942 0.5362512618949724 1.6288718428087503 -0.5820876354636879 -0.9448870811237642 -0.7372526159770044 -1.4712336109249338 -1.0821838675152733 -0.1967877216600757 -0.542460579497061 0.9093863418623866 0.05638225531664547 -0.32584984439669235 1.5610324024115136 0.05916365605068529 0.7778383797406189 3.0700033830369002 -0.5172486879655435 -3.2529702194048435 -0.46416177238258566 0.41968732835944733 1.229706196040981 -0.35176542692630397 -2.933568392293501 0.6518502644615444 -4.310016454656372 5.28077144434647 0.918468742812689 0.5861761220449611 1.2357285951453978 -0.08044431165632683 -1.8856282393373105 0.8394308576428037 -1.0855605490035647 3.9265052705536347 -1.550533719156391 -1.1056530482830085 0.47098653012782793 0.5742396888039514 0.8535564350323313 -2.412990528645466 1.3143309493970545 2.124693541532008 1.3168879970042282 0.024805717083124353 0.36726617449773175 -0.8830394454259678 0.15450819813988653 0.18782599909123746 0.8899703723255377 1.8911447756361826 -0.25043963339071 -1.0247870440359568 -0.41425321416510835 -0.45273930200726 0.4536515612977816 -1.9281215789416735 -0.7947027418010724 -0.05364854709501722 -1.592442416176433 -2.951568681288748 -0.6299876571372272 0.352978522145731 -1.1537712100484712 -1.8999934681929105 3.0395170482825247 1.005343545974276 -1.1970653130305753 -0.6187560675649264 2.1262793709977776 2.300180493889029 -0.8241407072735669 -0.006838028333025275 -2.445609588830676 -1.075268742204398 -3.1667993826599345 -0.5760558517898815 1.0275665252439885 
0.16891525189052287 1.5446985316002686 1.2553954410855135 1.2369978179262313 0.8498058319860089 0.0019112116043588968 0.1681873796086896 -5.120139990335239 0.9227605951365596 -0.17952710313739126 -1.566725109954121 0.04588756906942856 -1.6302807630543479 -0.42419007439086326 0.4054625432625368 -0.9791109164647144 1.3481051473711851 1.082986151511884 -0.4242823283068153 2.6477704611762465 -3.460946101969757 1.2069983025861342 0.8922353568360658 -0.40788661674866994 -4.794983259270821 -1.362849912326873 -0.8325086141920224 1.597221560496792 1.152620672944932 0.007495790510755377 -2.1460846306423815 -0.09961111696565735 -0.06772720630609042 -0.08677911657546115 0.10092033569913977 0.7073359431798818 -0.47119448716293033 0.03950163435315811 -0.5243868677734769 -0.617959958842293 -0.13320666775319134 -1.0371267669086237 0.2694876161319633 -0.8031121578454499 1.1575601448878077 -0.9493637363605133 -3.1473109039507245 0.05395743970921587 2.5552871145909104 0.775307904914948 -2.133851978565684 1.3564398186456945 1.8557740455854108 0.6356224815109007 -0.7037238213219557 -0.7450123518249557 2.549867123235729 -0.857134990778306 -0.17900688503683776 -0.6584489338883892 0.6431713092502964 -2.3701372418245987 -1.838093269541033 1.6272649632831135 -0.29693630085401335 2.8952211557120138 -0.3286277823552069 2.0957737860932073 -0.8355558417771475 1.2487050953313208 0.4853874305842361 1.1659146892430476 -0.2503979856693038 -2.070527551303498 -5.535180693314721 2.0089089304745578 1.4249940553451663 -0.33855164778388486 3.682249935022933 -1.032422910615805 0.7882616579211693 0.06550521766679399 0.9753147585481589 -2.231453022386651 -0.8580740439453887 -0.2492745462865024 -1.0272898767418177 0.5077933200583347 -1.460279419406806 -2.2891365217139756 -0.14060706656495067 0.9620281374004731 0.22036289629705422 -4.6209229057802546 -0.6032573297067513 -2.818257641414613 -0.4377284477844082 0.388892699910367 -2.1595424528402045 -5.002928943152643 0.06598718748738767 -1.534653777990436 -0.5353337472087566 -2.117836538449338 1.56637137859326 -0.16832033449581202 -0.31973862055193003 -1.9684921169039813 1.6108161484240406 1.8688753915225147 -1.3129596281787077 -0.14928086316471145 -0.4786413755625839 0.7114644314832606 3.149840825692506 -1.7314332620050796 1.0441894014805952 0.7471125007012929 -4.178551209703114 -1.9541025891429977 0.6166450162140472 1.3257564670438198 1.6510221590843437 -0.9802521516507623 1.2524251037243985 0.7316260233146297 0.5182487386987629 -1.2359608537652083 3.849891774873404 -0.5657626176200626 1.087982901998639 0.3355233580595727 -1.6088981569745442 0.3571770896032314 -0.12479603722325243 4.375141901389973 -1.6005818348517402 -0.6533334133819773 0.27735404814308473 -1.9167364149424604 1.6948317973724594 -1.7143575238876325 -0.5338332635787058 0.2868837601635667 2.570971097090523 -0.7384972144816357 -0.49944580920990334 -2.633313010770213 -0.10727705695087354 -0.012019999684981419 -1.2798980688137716 1.531131262216156 0.25015675116109265 0.5776637195259253 1.258481128752413 -2.5597172370375154 2.682369089732538 1.3258772967964798 0.13767130236276745 -1.5669841037922088 -0.0761612742478077 0.6937057410470026 1.4007516668640039 -0.6079451206774417 -1.9755981740698338 0.318614905249856 -0.7790989305196766 -1.4053472269730083 0.026525147518049016 1.8780809749903975 1.6253363949860833 2.632649402554265 -3.8175937250045178 0.05103705658548979 0.9908856842416167 0.31072256231034984 -2.3009687368586893 -0.2856572948702779 -0.7948038517529077 -2.8150245323183656 -0.2911773622227093 -0.4308155222448472 0.17039506675355556 -0.07340359152914956 1.9626048155747275 0.12154669147159042 -1.944462500026652 1.7526110479256451 1.2136236377270575 1.0832336457741856 -0.6799329454243609 0.4600950803194623 -1.068126821752663 0.27965013490464097 -4.9472793056261954 0.5690884066414914 1.9719976817141776 -0.6301588878135426 2.12872233776255 -0.3014019122606229 1.6257903331239094 2.3919806611954835 -0.7783512659278993 -0.024069590743664132 0.7833567696773223 -0.40441409715635873 -0.6790183215489348 -1.0074390552278105 3.6655341137694455 -5.445444433922497 3.7382313053846743 3.6475689575299475 -1.363958220399978 -0.7887876527257823 1.8632578554848929 -0.17161381903221354 1.3712307916867534 1.588180325316821 0.22317997285055546 -2.133699965098406 -1.151865217132876 -1.1077830114008795 -1.3741550892160452 0.14337768204986 -0.6464865570227839 -1.5416084210968086 0.629595637239025 -3.5294350809351327 0.886111571388436 2.3143490628711367 -2.5227174228437197 -1.3146108631158495 1.2237113382514344 -1.9813332305843807 -1.9136166484323072 2.543934370782546 0.06375433482145572 -1.1792465654303785 -0.6013398897313705 1.0699772835873138 1.2211594849416132 0.6593539127322776 1.8537526791700214 -1.9839308938807831 -0.6332911535179574 2.9767432543170225 0.764354085320848 1.231088442936812 0.3586466360484902 -0.041337951930080746 -3.4783948264807703 -0.22519843855219332 1.7688636706355327 -1.5037887711677107 0.791096718272492 1.7132995178371944 -0.6827761750705765 -0.861729079864971 -2.354387502229946 -0.8654813001266234 -2.7120605000647435 0.15800618799300886 -1.774248696318258 -1.7365668689834406 -0.030418919773040988 -2.386552850746976 6.868445782390174 4.833439451160048 -6.285638654532633 -0.3834779928825096 0.6830749405311267 -1.4373824015782841 1.1102357625321022 -0.49140228961928856 -0.5279967721512365 -0.9112813012964313 1.9281250639028966 -0.7098241913044848 1.2195249195404276 -0.1726169226041857 0.532062949766042 -0.48765987123329 -0.0516092787186831 -1.335974161521071 -1.024081965287567 1.087255937279902 -0.13595981528026505 -1.0337257866996497 -0.03813062426775407 -0.610401910413298 -0.09843254679130502 0.30210477165405347 -1.2895852190388244 -0.18791752562201178 0.42722771573457713 -0.6608024879145475 2.267510984783829 1.7066517862209427 -2.6123891881530974 1.5687684557422126 -1.6343915108908362 0.06754967432847372 0.9564160668740126 2.1027380096112416 0.022362062973743956 0.2405945627760965 0.7656948829447352 -2.882120422085703 -3.1128090218703286 0.3978425969308265 -2.0524458598350788 -2.09406755699344 0.9558414847960902 2.11824687661652 1.3314303501806155 -0.7043229567302763 -2.223241507151902 1.6154280134312056 -0.8489233458415537 -0.21656022453195584 -2.1527404638781653 0.11928677497232623 1.4479897421000063 1.2674630695739053 -1.5862876753747361 1.110764731137781 -1.3556181051936367 -2.225756276713198 -2.2741376299395677 0.4380109041622715 3.5220794677018525 2.699932513667399 0.03317252420189712 2.1521589147745086 0.6523672152430975 -0.0459386735890366 -0.24983998863617518 -0.921621616404467 2.3126046168631404 -0.6714018392837244 -0.4714211574247948 -2.1444027683322013 -2.9160650068646636 1.0652324110338909 0.5906425170436944 1.2587821483615462 2.546491740916341 -0.21997526866565922 -3.0239202012049256 0.5859826592969486 -0.9824447812175968 -0.3843065660264195 -1.926604158943816 -1.4228325975089022 -1.618900293072855 -0.9301273933140853 1.3848106758686054 0.4457524649245329 -1.1797440458483002 2.1965879646270174 3.975143481552272 0.833076308562862 -1.6898670052394262 -0.3080912579075731 -1.117847942977836 -0.6690242029107696 0.5183495178091987 0.04611501049586085 0.04807551164536005 1.8245968218048794 -0.11515905810305362 -1.4127314179353165 3.4825031523625243 0.8823351367777427 0.8846930257862645 1.7945356864610373 3.031999728131635 -1.105863527723203 -0.20427170198903583 -1.120876367390504 -1.3690791136381388 0.25814251649430775 -1.0189867807210242 -1.9060265368444853 -3.3682907125014587 0.1665361838081312 -1.3152483365677092 1.5951748917621866 -1.0713397767498514 0.8878619708335209 -2.628636641596865 0.3961595681816195 -0.9550264884921431 1.3314133827488284 -0.18297307172355742 -0.097058512294645 1.098486653666309 -2.0564137186899485 -0.3356711600773252 -1.8524177856325197 -1.1421647432454323 0.41144828067104283 0.9763225047320329 1.8378685925301694 2.750110316347139 -0.6790756498065978 0.6226033016350773 1.1837171156482627 -2.8968424747636714 -0.7821365534698248 -1.559902309989633 -2.2090140999131758 0.6066100568013664 -0.8159664832704994 0.7719215755471039 -0.06397426782441797 2.707279930497656 0.03097139249754496 3.469954084469739 0.9697504852302197 0.4441587965929673 2.598668951452666 2.8273917130857504 1.8579960210538156 0.614055583583774 -0.4679813711730896 2.2611134967165474 -2.168588067488844 -1.013352572418156 -1.322279032891395 -0.8612800336196875 -1.3827967015920541 2.6738283089383743 1.7725340852666234 1.8190679416167168 -2.8126741092930656 -0.9689741438385375 1.450672485277264 1.4354997908115699 -1.5311529396262653 -0.07655370697980282 -0.47732248102359015 -1.913457684477094 2.2281947419070702 -0.922489091390442 -1.0009337058794492 -0.25411441705841104 -0.6178180480618278 3.2814296940551384 2.523482218821815 1.5321882261996753 -1.1682249766366655 1.1427921974967528 -0.8666243404129944 -3.9453807320667846 2.2476933478089802 -1.7217411721071416 0.04793226991624023 1.5520193391964665 -2.00055897664747 1.9890779911992647 1.686756615855403 -1.9774816470457064 -0.0906244235222192 -1.4650445922579742 -0.8971898171198117 -4.015625471681724 0.09714876682252493 1.5415071294207008 2.1563486625822486 0.5349497762889428 -3.542548885643903 -0.07349053178407577 -2.1368744685819494 1.0886417108769653 -1.399567048202496 2.6034446613324387 -1.6048395454981321 -1.6426679919625082 -4.011823567092864 1.848919497362208 2.629565637172439 1.2152066267745523 -0.9086467727069815 0.283713309173171 -1.7415305181028102 0.6023039632293802 -0.4007993706502581 2.369048057408337 0.9060549891217836 -1.9237087624088072 -0.4824825142972459 0.9589062101345911 -1.3743296219954733 0.7634669744114764 -1.4856685408263814 0.5066250094802754 -0.29803651492061356 0.7782022927403257 1.6499951338325942 0.3003546877468866 0.5183535926891242 0.04462906825989512 0.21648278450549188 1.3972640455017447 -0.12857868510053627 -0.7565820034211542 0.1107859722586486 0.6278576403643175 2.3467975182121226 0.8740474924601159 1.5560346465287114 2.0453007745094074 0.5200562702283451 2.885695758917338 -0.5564991542822996 -0.9134587494382286 0.40397223228952545 2.4570807967545476 0.9791573626851817 -2.630138592977982 -1.080271384338549 2.157873117907133 -0.9788599103475436 -0.24220462663747996 -0.20596175253425467 -0.798399351502162 1.1257516953893503 2.1250616346186613 -0.33182122437617906 -0.7216762529214206 -0.2072385214647296 -1.5051340585377466 1.8208766167398962 -0.217826688827118 0.5110535962607955 1.094420745262899 -1.8423505091521342 0.747846216864054 -2.976403294083183 -0.6298463461430018 1.0199657782641016 1.7198145193472694 -2.8461396770868617 2.0847383527122734 3.7127835398021793 -0.5406220196584508 0.845520005823036 -1.6060810700833466 -1.327098016361401 -0.1201843541704183 -0.4281597826548768 2.4759317147717472 0.40750332891278757 -1.3417279967390954 -0.24748371059567875 2.1579900733542083 3.639180410040796 0.9981585342899093 1.7545536124780092 2.3278960721073942 -2.3802043045969126 -1.0088092866275027 3.583959544684855 1.0395270938609726 -2.2222563727774562 2.958586860493934 -0.7399683951539935 -0.005806291325101624 -2.850084013346727 -1.673923895675874 -0.4464148531628641 0.36540049337269803 0.24078487554631398 -0.9291539470947657 -2.6087159792055212 0.9396315759901241 3.5756270469345823 2.9038058760295398 0.797145327365249 -0.42630631936447433 2.624713190377614 -0.03881026038581299 1.1610873797267098 -0.38215650374042814 -1.859701997263117 -1.4022349130668499 1.2079289592888482 -1.785120632917198 2.1613897425031774 -1.6394881611845484 0.5674873534437079 -0.6061130053481399 -1.4195583371666096 1.5466706602753721 1.1159186217537655 1.4086694925045369 0.16854916719886912 -1.2257373041252475 1.2078772182676463 0.603514486082086 -0.9225661752070815 1.2689170267700782 1.1880739689638153 0.9064221847227202 0.5531765420262528 1.6893822546558301 0.8707829438771323 1.5007428091593842 -3.1024081120703477 1.1314743539438965 0.2727772971309241 -1.2542841968924594 -0.8423722942492566 -3.1658842402274563 4.141776602510161 1.0254293605434013 -1.954246592340497 -0.45437237222062754 0.5865711475654796 0.5266718408647455 1.4612871510116932 0.7217252897845564 -0.9085763730416113 -0.41773381063553394 5.609300818042453 0.8250660988709979 0.6090607440842563 0.7184002553103993 -0.34279897768610196 0.3040787694667267 -1.338754709582808 -4.02784103054919 -2.154245405713151 0.8872976577465578 -0.6866620039188875 -1.8045386092770772 -0.385354034950026 4.028214069255898 2.415761409245277 -2.2300070690491185 0.8629521251427835 0.09998304586966948 -0.7088994145563057 -0.5345694443015848 1.8713068308218324 0.3231719332307259 -1.2503278520038226 -0.586539360077145 2.7988479250298166 -1.066977029365271 -0.407865893650538 0.6501510974042659 1.3540789024282234 1.2619149403059378 1.1297382417741042 0.9347912500965285 -7.3166642110817275 0.35702882002060593 -2.4283491734132063 2.241775550048244 0.07943798856271413 -2.7166698597205423 -0.7208830481260918 0.9431565297257052 -0.6153007551163637 2.703571699142045 1.434194155282354 4.452461846908038 0.568232731433227 -0.021346815191763298 0.7072607104801683 -2.835775565314652 -0.13026983081836824 -0.36471869316061484 2.244513559046548 0.743639674760222 2.0601062758330984 1.1523463263808602 -2.275271213844431 -2.005481715740379 0.16143357104782877 -2.8859393964072857 -2.3518685695931083 -2.148526349870348 0.6262576086409803 -0.8393009833721371 1.3670127035687056 0.9934935381449939 -4.27796983796497 -2.1158046561462243 -0.6564877564043644 -2.2541894607659243 -2.87059979566847 -0.2723399979874447 1.7126106391739944 -0.1990188270978016 -4.035404455959768 -1.1312737047930352 -0.7918989394026927 2.0389414070645335 1.408594214103412 -5.819864708903543E-4 -2.5648433738915326 -1.7701206529928648 -5.450083264285011 5.843233608788459 0.3058298870145191 -5.190821796083354 -1.0200173669912995 -0.152452867117542 -0.5147437108598538 0.8674041984168399 -1.638592211584752 1.982100139683722 -0.24010452935379537 -0.4940818377605536 -0.32575613824357136 -0.13908557756308618 -1.2213235967363096 -2.4614027884492677 -0.3288091914797683 2.056349760188242 -1.9077951506759334 2.2366778632892172 0.7172207624524007 -0.9586270411507558 -0.6475866874215949 -2.9112790479706567 -2.254918170184785 -0.48112736779315074 -0.0015638170476061565 -2.614629898685266 0.8191325321043355 0.6974064435728374 1.2371836205418918 -0.43443684471303845 0.17776424597162324 0.25491225957642366 0.6603356586941012 -0.4941600036610412 1.0319867301275591 -2.3213657091033384 3.1469432060875002 -0.7761038394111441 -0.7504731951174599 -5.83316350313473 -2.004200851367702 0.5428311058309668 -2.0213613728181947 -1.0811008503007646 -0.21772911677847526 -0.4618497186707178 0.884189987031934 3.551382183482088 -0.6029605529790276 -0.7369411491609381 1.3992695358762377 -0.2120791451034141 -0.7156225091672851 -0.7727124863292275 0.7032683036758977 0.11301954771572847 2.2995760988243026 0.9458841393449058 -0.8234102324810683 0.8250509998850336 0.469943729164253 -1.0217572259369934 0.15020504868699347 0.33937961242202014 -0.3179052038768156 -0.4421398631042767 -0.7890286368807105 -2.1253652181886604 -2.746658675958386 0.4037175527089382 -4.547396359887179 -0.2663572247680298 -1.4422939616414279 
